<?xml version="1.0"?>
<opencv_storage>
<my_svm type_id="opencv-ml-svm">
  <svm_type>C_SVC</svm_type>
  <kernel><type>RBF</type>
    <gamma>3.3750000000000002e-002</gamma></kernel>
  <C>6.2500000000000000e+001</C>
  <term_criteria><epsilon>1.1920928955078125e-007</epsilon>
    <iterations>1000</iterations></term_criteria>
  <var_all>172</var_all>
  <var_count>172</var_count>
  <class_count>2</class_count>
  <class_labels type_id="opencv-matrix">
    <rows>1</rows>
    <cols>2</cols>
    <dt>i</dt>
    <data>
      0 1</data></class_labels>
  <sv_total>353</sv_total>
  <support_vectors>
    <_>
      1.47058830e-001 2.05882356e-001 1.76470593e-001 2.05882356e-001
      2.05882356e-001 2.05882356e-001 2.05882356e-001 7.35294104e-001 1.
      1. 9.41176474e-001 1. 1. 2.05882356e-001 1.76470593e-001
      1.76470593e-001 1.76470593e-001 2.05882356e-001 2.05882356e-001
      1.76470593e-001 0. 4.11764711e-001 5.88235319e-001 6.47058845e-001
      7.64705896e-001 8.23529422e-001 7.05882370e-001 5.29411793e-001
      4.70588237e-001 4.41176474e-001 3.82352948e-001 4.11764711e-001
      4.11764711e-001 4.11764711e-001 4.11764711e-001 4.11764711e-001
      5.00000000e-001 5.29411793e-001 7.05882370e-001 8.82352948e-001
      7.94117630e-001 7.05882370e-001 6.17647052e-001 4.70588237e-001
      1.76470593e-001 1.17647059e-001 1.76470593e-001 2.35294119e-001
      3.23529422e-001 3.52941185e-001 4.11764711e-001 4.11764711e-001
      4.41176474e-001 7.05882370e-001 6.76470578e-001 5.88235319e-001
      5.88235319e-001 7.05882370e-001 7.35294104e-001 4.41176474e-001
      4.41176474e-001 4.11764711e-001 3.52941185e-001 2.94117659e-001
      2.35294119e-001 1.47058830e-001 8.82352963e-002 2.94117648e-002
      4.11764711e-001 5.88235319e-001 6.76470578e-001 7.64705896e-001
      8.23529422e-001 6.17647052e-001 5.29411793e-001 4.70588237e-001
      4.11764711e-001 4.11764711e-001 3.52941185e-001 3.52941185e-001
      3.82352948e-001 4.11764711e-001 4.41176474e-001 5.00000000e-001
      5.58823526e-001 7.05882370e-001 8.23529422e-001 7.64705896e-001
      6.47058845e-001 5.58823526e-001 3.52941185e-001 0. 2.05882356e-001
      2.05882356e-001 2.05882356e-001 2.05882356e-001 2.05882356e-001
      2.05882356e-001 2.05882356e-001 9.70588207e-001 9.70588207e-001
      9.70588207e-001 9.70588207e-001 9.70588207e-001 7.94117630e-001
      2.05882356e-001 1.76470593e-001 1.76470593e-001 1.76470593e-001
      1.76470593e-001 2.35294119e-001 3.23529422e-001 2.94117659e-001
      3.82352948e-001 4.70588237e-001 5.88235319e-001 6.47058845e-001
      6.47058845e-001 7.05882370e-001 7.35294104e-001 5.88235319e-001
      4.41176474e-001 4.41176474e-001 5.88235319e-001 6.47058845e-001
      7.35294104e-001 6.47058845e-001 5.88235319e-001 6.17647052e-001
      5.58823526e-001 4.41176474e-001 3.23529422e-001 2.35294119e-001
      1.17647059e-001 0. 0. 4.04040404e-002 5.55555582e-001
      8.18181813e-001 8.88888896e-001 9.19191897e-001 9.49494958e-001 1.
      9.29292917e-001 6.36363626e-001 6.16161644e-001 5.85858583e-001
      5.85858583e-001 5.75757563e-001 5.65656543e-001 5.85858583e-001
      5.65656543e-001 5.45454562e-001 5.55555582e-001 5.25252521e-001
      5.25252521e-001 5.35353541e-001 5.75757563e-001 5.95959604e-001
      6.06060624e-001 6.06060624e-001 6.26262605e-001 6.36363626e-001
      6.06060624e-001 6.06060624e-001 6.36363626e-001 6.26262605e-001
      6.06060624e-001 5.65656543e-001 5.15151501e-001 3.03030312e-001
      3.03030312e-002</_>
    <_>
      1. 1. 1. 1. 1. 6.38888896e-001 2.77777780e-002 2.77777780e-002
      2.77777780e-002 2.77777780e-002 2.77777780e-002 2.77777780e-002 0.
      0. 0. 0. 2.77777780e-002 2.77777780e-002 2.77777780e-002
      2.77777780e-002 0. 0. 0. 0. 0. 0. 0. 1.11111112e-001
      2.50000000e-001 3.33333343e-001 3.61111104e-001 8.61111104e-001
      9.44444418e-001 9.44444418e-001 9.72222209e-001 9.44444418e-001
      8.05555582e-001 3.61111104e-001 8.33333358e-002 5.55555560e-002
      5.55555560e-002 5.55555560e-002 5.55555560e-002 5.55555560e-002
      1.94444448e-001 9.72222209e-001 1. 1. 1. 1. 1. 9.72222209e-001
      2.77777780e-002 0. 0. 0. 0. 0. 0. 0. 0. 0. 5.55555560e-002
      1.94444448e-001 2.22222224e-001 2.50000000e-001 2.77777791e-001
      3.05555552e-001 3.33333343e-001 3.33333343e-001 3.61111104e-001
      2.50000000e-001 1.11111112e-001 1.11111112e-001 8.33333358e-002
      8.33333358e-002 2.77777780e-002 0. 0. 1.11111112e-001
      6.94444418e-001 1. 1. 1. 1. 1. 1. 8.88888896e-001 3.33333343e-001
      8.33333358e-002 8.33333358e-002 8.33333358e-002 8.33333358e-002
      8.33333358e-002 1.94444448e-001 5.55555582e-001 8.33333313e-001 1.
      1. 1. 1. 1. 1. 9.44444418e-001 3.33333343e-001 0. 0. 0. 0. 0. 0.
      1. 1. 1. 1. 1. 1. 1. 8.61111104e-001 6.11111104e-001
      4.44444448e-001 3.88888896e-001 4.16666657e-001 4.16666657e-001
      4.16666657e-001 6.11111104e-001 7.22222209e-001 7.22222209e-001
      6.94444418e-001 6.66666687e-001 6.38888896e-001 5.83333313e-001
      5.27777791e-001 3.88888896e-001 1.94444448e-001 1.38888896e-001
      9.88636374e-001 1. 9.31818187e-001 7.95454562e-001 7.15909064e-001
      6.81818187e-001 6.36363626e-001 6.13636374e-001 5.45454562e-001
      5.34090936e-001 5.22727251e-001 5.00000000e-001 4.88636374e-001
      5.00000000e-001 5.34090936e-001 6.13636374e-001 6.13636374e-001
      6.70454562e-001 7.04545438e-001 7.15909064e-001 7.04545438e-001
      7.04545438e-001 7.04545438e-001 6.70454562e-001 6.36363626e-001
      6.36363626e-001 6.25000000e-001 6.13636374e-001 6.02272749e-001
      5.79545438e-001 5.68181813e-001 5.90909064e-001 6.02272749e-001
      6.02272749e-001 5.79545438e-001 6.25000000e-001</_>
    <_>
      5.88235319e-001 6.47058845e-001 6.76470578e-001 6.76470578e-001
      6.47058845e-001 6.17647052e-001 5.88235319e-001 5.00000000e-001
      2.64705896e-001 0. 0. 0. 0. 0. 0. 0. 5.58823526e-001
      7.94117630e-001 8.23529422e-001 8.52941155e-001 9.11764681e-001
      9.70588207e-001 1. 9.41176474e-001 5.29411793e-001 1.76470593e-001
      1.17647059e-001 8.82352963e-002 5.88235296e-002 2.94117648e-002
      2.94117648e-002 0. 0. 0. 0. 0. 0. 0. 2.94117648e-002
      8.82352963e-002 1.47058830e-001 1.47058830e-001 9.11764681e-001
      8.23529422e-001 8.23529422e-001 7.94117630e-001 7.64705896e-001
      7.64705896e-001 7.94117630e-001 7.35294104e-001 4.70588237e-001 0.
      0. 0. 0. 0. 0. 0. 2.35294119e-001 3.82352948e-001 4.41176474e-001
      4.41176474e-001 4.41176474e-001 4.41176474e-001 4.41176474e-001
      4.11764711e-001 3.82352948e-001 4.11764711e-001 4.41176474e-001
      4.11764711e-001 4.41176474e-001 4.70588237e-001 4.41176474e-001
      4.70588237e-001 5.29411793e-001 5.00000000e-001 5.00000000e-001
      5.29411793e-001 4.70588237e-001 4.70588237e-001 5.00000000e-001
      5.00000000e-001 5.29411793e-001 5.00000000e-001 6.17647052e-001
      6.17647052e-001 5.88235319e-001 5.29411793e-001 5.29411793e-001
      5.00000000e-001 4.70588237e-001 3.82352948e-001 2.94117659e-001
      1.76470593e-001 0. 0. 0. 0. 0. 0. 8.82352963e-002 7.94117630e-001
      8.82352948e-001 8.82352948e-001 8.52941155e-001 8.23529422e-001
      8.23529422e-001 8.23529422e-001 8.23529422e-001 8.82352963e-002
      5.88235296e-002 5.88235296e-002 5.88235296e-002 2.94117648e-002
      2.94117648e-002 2.94117648e-002 2.94117648e-002 2.94117648e-002
      2.94117648e-002 2.94117648e-002 2.94117648e-002 5.88235296e-002
      5.88235296e-002 5.88235296e-002 1.17647059e-001 1.17647059e-001
      9.70588207e-001 9.41176474e-001 8.52941155e-001 8.23529422e-001
      8.23529422e-001 8.23529422e-001 7.94117630e-001 7.64705896e-001
      2.35294119e-001 0. 4.25000012e-001 8.87499988e-001 9.62499976e-001
      1. 9.87500012e-001 9.87500012e-001 9.75000024e-001 9.75000024e-001
      9.49999988e-001 5.37500024e-001 5.37500024e-001 5.24999976e-001
      5.37500024e-001 5.62500000e-001 5.74999988e-001 6.00000024e-001
      6.12500012e-001 6.12500012e-001 6.00000024e-001 5.87499976e-001
      6.00000024e-001 5.74999988e-001 6.12500012e-001 6.00000024e-001
      6.25000000e-001 6.25000000e-001 6.49999976e-001 5.74999988e-001
      4.87500012e-001 3.37500006e-001 3.24999988e-001 3.24999988e-001
      2.37499997e-001 2.62499988e-001 2.75000006e-001 3.62500012e-001</_>
    <_>
      1. 1. 1. 1. 1. 5.27777791e-001 3.05555552e-001 1.94444448e-001 0.
      1.66666672e-001 3.05555552e-001 5.00000000e-001 6.66666687e-001 1.
      1. 1. 1. 1. 7.77777791e-001 4.44444448e-001 0. 0. 3.61111104e-001
      5.00000000e-001 5.83333313e-001 5.00000000e-001 3.33333343e-001 0.
      0. 0. 0. 0. 0. 0. 0. 0. 0. 0. 0. 0. 0. 0. 0. 0. 0. 0. 0. 0.
      1.66666672e-001 4.72222209e-001 6.11111104e-001 6.94444418e-001
      8.05555582e-001 8.88888896e-001 9.16666687e-001 9.44444418e-001 1.
      4.16666657e-001 0. 0. 0. 0. 2.77777780e-002 1. 1. 1. 1. 1.
      9.44444418e-001 4.72222209e-001 3.05555552e-001 0. 0. 0.
      1.11111112e-001 4.16666657e-001 1. 1. 1. 1. 1. 1. 7.50000000e-001
      4.16666657e-001 2.50000000e-001 1.38888896e-001 5.55555560e-002
      5.55555560e-002 8.33333358e-002 6.11111104e-001 7.50000000e-001
      8.33333313e-001 8.61111104e-001 7.50000000e-001 5.83333313e-001
      3.88888896e-001 2.50000000e-001 1.94444448e-001 1.11111112e-001 0.
      4.72222209e-001 6.94444418e-001 9.16666687e-001 9.16666687e-001
      8.88888896e-001 8.61111104e-001 7.77777791e-001 3.88888896e-001
      3.05555552e-001 2.50000000e-001 2.50000000e-001 2.50000000e-001
      2.77777791e-001 3.05555552e-001 3.88888896e-001 9.16666687e-001
      9.44444418e-001 9.16666687e-001 8.88888896e-001 8.33333313e-001
      7.50000000e-001 5.83333313e-001 4.44444448e-001 3.61111104e-001
      3.61111104e-001 4.16666657e-001 4.72222209e-001 5.83333313e-001
      6.94444418e-001 8.05555582e-001 8.05555582e-001 8.05555582e-001
      6.94444418e-001 3.88888896e-001 3.05555552e-001 2.77777791e-001
      6.62337661e-001 6.75324678e-001 6.75324678e-001 7.01298714e-001
      7.14285731e-001 7.79220760e-001 7.66233742e-001 7.53246725e-001
      7.66233742e-001 7.92207778e-001 8.05194795e-001 8.18181813e-001
      8.05194795e-001 7.92207778e-001 7.92207778e-001 8.18181813e-001
      8.18181813e-001 8.18181813e-001 7.79220760e-001 8.05194795e-001
      8.18181813e-001 8.31168830e-001 8.57142866e-001 8.83116901e-001
      8.70129883e-001 9.22077894e-001 9.61038947e-001 1. 9.87012982e-001
      9.87012982e-001 9.87012982e-001 9.87012982e-001 9.87012982e-001
      9.61038947e-001 9.22077894e-001 9.22077894e-001</_>
    <_>
      9.71428573e-001 9.71428573e-001 7.71428585e-001 7.42857158e-001
      8.00000012e-001 7.71428585e-001 6.28571451e-001 5.71428597e-001
      5.42857170e-001 4.85714287e-001 5.14285743e-001 5.42857170e-001
      3.71428579e-001 3.71428579e-001 3.42857152e-001 3.14285725e-001
      3.14285725e-001 3.42857152e-001 4.00000006e-001 4.00000006e-001
      2.28571430e-001 2.28571430e-001 2.00000003e-001 2.00000003e-001
      2.28571430e-001 2.28571430e-001 3.14285725e-001 4.00000006e-001
      2.00000003e-001 1.71428576e-001 2.00000003e-001 2.00000003e-001
      2.00000003e-001 2.85714298e-001 3.14285725e-001 3.42857152e-001
      1.71428576e-001 1.71428576e-001 1.71428576e-001 1.71428576e-001
      1.71428576e-001 2.00000003e-001 3.14285725e-001 2.57142872e-001
      1.42857149e-001 1.42857149e-001 1.42857149e-001 1.42857149e-001
      1.42857149e-001 1.71428576e-001 3.14285725e-001 2.28571430e-001
      1.42857149e-001 1.42857149e-001 1.42857149e-001 1.42857149e-001
      1.42857149e-001 1.71428576e-001 3.14285725e-001 2.85714298e-001
      1.42857149e-001 1.42857149e-001 1.42857149e-001 1.42857149e-001
      1.42857149e-001 2.00000003e-001 2.57142872e-001 2.00000003e-001
      1.42857149e-001 1.42857149e-001 1.42857149e-001 1.42857149e-001
      1.42857149e-001 2.00000003e-001 2.57142872e-001 2.28571430e-001
      1.42857149e-001 1.42857149e-001 1.42857149e-001 1.42857149e-001
      1.42857149e-001 1.71428576e-001 2.57142872e-001 2.00000003e-001
      1.42857149e-001 1.42857149e-001 1.42857149e-001 1.42857149e-001
      1.42857149e-001 1.71428576e-001 2.57142872e-001 1.71428576e-001
      1.42857149e-001 1.42857149e-001 1.42857149e-001 1.42857149e-001
      1.42857149e-001 1.71428576e-001 2.85714298e-001 1.71428576e-001
      1.42857149e-001 1.71428576e-001 1.42857149e-001 2.00000003e-001
      1.71428576e-001 2.28571430e-001 3.14285725e-001 2.00000003e-001
      1.71428576e-001 3.14285725e-001 6.85714304e-001 9.71428573e-001
      9.71428573e-001 9.71428573e-001 9.71428573e-001 9.71428573e-001 1.
      4.00000006e-001 2.00000003e-001 1.42857149e-001 1.42857149e-001
      1.42857149e-001 1.14285715e-001 1.71428576e-001 1.42857149e-001
      1.71428576e-001 1.71428576e-001 1.42857149e-001 1.42857149e-001
      1.42857149e-001 1.42857149e-001 1.42857149e-001 1.42857149e-001
      1.42857149e-001 1.42857149e-001 1.42857149e-001 1. 9.85294104e-001
      9.85294104e-001 9.77941155e-001 7.13235319e-001 1.47058824e-002
      8.82352963e-002 1.91176474e-001 1.98529407e-001 2.27941170e-001
      2.50000000e-001 2.57352948e-001 1.91176474e-001 1.54411763e-001
      1.10294119e-001 9.55882370e-002 8.82352963e-002 9.55882370e-002
      8.82352963e-002 9.55882370e-002 9.55882370e-002 1.02941178e-001
      1.10294119e-001 1.17647059e-001 1.17647059e-001 1.25000000e-001
      1.32352948e-001 1.39705881e-001 1.61764711e-001 1.76470593e-001
      1.91176474e-001 2.05882356e-001 2.20588237e-001 2.57352948e-001
      3.45588237e-001 5.00000000e-001</_>
    <_>
      1.07142858e-001 2.85714298e-001 4.28571433e-001 1. 1. 1.
      7.50000000e-001 0. 0. 0. 0. 0. 0. 0. 0. 0. 0. 0. 0. 0. 0. 0. 0. 0.
      0. 0. 0. 1.07142858e-001 2.85714298e-001 3.57142866e-001
      4.28571433e-001 3.57142866e-001 3.21428567e-001 4.28571433e-001
      3.57142866e-001 1. 1. 1. 1. 0. 0. 0. 0. 4.64285702e-001
      5.35714269e-001 6.07142866e-001 6.07142866e-001 3.21428567e-001
      3.21428567e-001 3.21428567e-001 3.21428567e-001 3.21428567e-001
      4.64285702e-001 4.64285702e-001 4.28571433e-001 3.21428567e-001 0.
      0. 0. 0. 0. 0. 0. 0. 0. 0. 0. 0. 0. 0. 0. 0. 0. 1. 1. 1. 1.
      4.64285702e-001 4.64285702e-001 4.28571433e-001 4.64285702e-001
      4.28571433e-001 4.64285702e-001 1. 1. 1. 7.85714269e-001 0.
      7.14285746e-002 1.78571433e-001 3.92857134e-001 4.28571433e-001
      3.21428567e-001 2.85714298e-001 2.85714298e-001 2.85714298e-001
      6.07142866e-001 5.71428597e-001 4.64285702e-001 4.28571433e-001 0.
      0. 0. 0. 0. 0. 0. 1.42857149e-001 1.42857149e-001 7.14285731e-001
      8.57142866e-001 8.57142866e-001 8.57142866e-001 0. 0. 0. 0. 0. 0.
      4.28571433e-001 5.00000000e-001 5.71428597e-001 5.71428597e-001
      1.42857149e-001 1.42857149e-001 1.42857149e-001 1.42857149e-001
      1.42857149e-001 5.71428597e-001 5.71428597e-001 5.00000000e-001
      4.64285702e-001 0. 0. 0. 0. 0. 0. 0. 0. 0. 0. 0. 0.
      2.92307705e-001 3.23076934e-001 3.38461548e-001 4.15384620e-001
      4.15384620e-001 3.84615391e-001 3.84615391e-001 4.00000006e-001
      3.69230777e-001 3.69230777e-001 3.69230777e-001 4.46153849e-001
      9.07692313e-001 9.38461542e-001 9.53846157e-001 1. 7.07692325e-001
      7.07692325e-001 7.23076940e-001 7.53846169e-001 8.30769241e-001
      8.30769241e-001 8.15384626e-001 8.30769241e-001 7.38461554e-001
      6.46153867e-001 6.76923096e-001 6.61538482e-001</_>
    <_>
      0. 2.42424250e-001 9.39393938e-001 1. 9.69696999e-001
      8.18181813e-001 7.57575750e-001 7.57575750e-001 6.96969688e-001
      6.36363626e-001 3.93939406e-001 2.12121218e-001 0. 0. 0. 0.
      6.06060624e-002 1.81818187e-001 1.51515156e-001 1.21212125e-001
      1.81818187e-001 3.33333343e-001 3.33333343e-001 2.42424250e-001
      2.42424250e-001 1.81818187e-001 1.21212125e-001 3.03030312e-002 0.
      0. 9.09090936e-002 4.24242437e-001 4.84848499e-001 5.75757563e-001
      6.36363626e-001 7.27272749e-001 7.27272749e-001 6.66666687e-001
      6.06060624e-001 5.75757563e-001 0. 0. 0. 0. 0. 0. 0.
      3.03030312e-002 7.87878811e-001 8.78787875e-001 7.57575750e-001
      7.87878811e-001 7.87878811e-001 8.18181813e-001 7.27272749e-001
      6.66666687e-001 4.84848499e-001 9.09090936e-002 0. 0. 0.
      1.21212125e-001 1.21212125e-001 1.81818187e-001 2.12121218e-001
      2.12121218e-001 3.63636374e-001 4.84848499e-001 4.54545468e-001
      3.93939406e-001 3.33333343e-001 2.42424250e-001 2.12121218e-001
      6.06060624e-002 0. 0. 6.06060624e-002 4.84848499e-001
      6.36363626e-001 6.66666687e-001 6.36363626e-001 5.75757563e-001
      5.75757563e-001 6.66666687e-001 7.27272749e-001 6.36363626e-001 0.
      0. 0. 0. 0. 0. 0. 0. 0. 8.18181813e-001 9.69696999e-001
      9.69696999e-001 9.69696999e-001 9.39393938e-001 8.48484874e-001
      7.57575750e-001 6.06060624e-001 4.84848499e-001 2.42424250e-001
      1.51515156e-001 0. 0. 6.06060624e-002 1.21212125e-001
      2.12121218e-001 2.12121218e-001 2.12121218e-001 2.72727281e-001
      3.63636374e-001 4.54545468e-001 4.84848499e-001 3.03030312e-001
      1.81818187e-001 3.03030312e-001 2.42424250e-001 0. 0.
      2.12121218e-001 3.03030312e-001 3.63636374e-001 5.45454562e-001
      7.27272749e-001 8.78787875e-001 9.09090936e-001 9.09090936e-001
      9.69696999e-001 9.39393938e-001 7.87878811e-001 0. 0.
      2.38095243e-002 1.19047619e-001 2.50000000e-001 3.80952388e-001
      3.69047612e-001 4.04761910e-001 4.52380955e-001 5.11904776e-001
      5.71428597e-001 6.07142866e-001 6.19047642e-001 5.95238090e-001
      6.42857134e-001 7.02380955e-001 7.38095224e-001 7.73809552e-001
      8.69047642e-001 8.92857134e-001 9.16666687e-001 1. 9.88095224e-001
      9.76190448e-001 9.52380955e-001 7.73809552e-001 6.66666687e-001
      6.19047642e-001 5.71428597e-001 5.47619045e-001 5.35714269e-001
      4.76190478e-001 3.80952388e-001 2.97619045e-001 1.90476194e-001
      8.33333358e-002 3.57142873e-002 0.</_>
    <_>
      4.72222209e-001 5.27777791e-001 6.66666687e-001 7.77777791e-001
      5.27777791e-001 4.44444448e-001 3.88888896e-001 3.33333343e-001
      2.77777791e-001 2.77777791e-001 2.22222224e-001 1.66666672e-001
      1.66666672e-001 1.38888896e-001 1.11111112e-001 5.55555560e-002
      5.55555560e-002 5.55555560e-002 5.55555560e-002 2.77777780e-002
      2.77777780e-002 2.77777780e-002 2.77777780e-002 2.77777780e-002
      5.55555560e-002 5.55555560e-002 8.33333358e-002 1.11111112e-001
      3.05555552e-001 5.00000000e-001 6.94444418e-001 8.33333313e-001
      8.88888896e-001 8.88888896e-001 5.83333313e-001 5.27777791e-001
      5.83333313e-001 6.38888896e-001 1. 8.88888896e-001 8.61111104e-001
      6.38888896e-001 4.72222209e-001 2.77777791e-001 1.11111112e-001
      8.33333358e-002 8.33333358e-002 8.33333358e-002 5.55555560e-002
      5.55555560e-002 5.55555560e-002 5.55555560e-002 5.55555560e-002
      8.33333358e-002 8.33333358e-002 8.33333358e-002 1.11111112e-001
      1.94444448e-001 4.44444448e-001 7.22222209e-001 8.61111104e-001
      8.88888896e-001 8.61111104e-001 6.38888896e-001 5.55555582e-001
      5.27777791e-001 5.27777791e-001 7.50000000e-001 9.72222209e-001
      8.88888896e-001 8.33333313e-001 6.66666687e-001 5.55555582e-001
      2.77777791e-001 8.33333358e-002 5.55555560e-002 5.55555560e-002
      5.55555560e-002 5.55555560e-002 5.55555560e-002 5.55555560e-002
      5.55555560e-002 5.55555560e-002 5.55555560e-002 5.55555560e-002
      1.11111112e-001 1.11111112e-001 1.38888896e-001 5.83333313e-001
      7.22222209e-001 8.33333313e-001 8.61111104e-001 7.50000000e-001
      6.11111104e-001 5.55555582e-001 5.83333313e-001 6.38888896e-001
      8.88888896e-001 9.44444418e-001 8.33333313e-001 7.22222209e-001
      6.38888896e-001 3.88888896e-001 1.38888896e-001 1.38888896e-001
      1.11111112e-001 8.33333358e-002 8.33333358e-002 5.55555560e-002
      5.55555560e-002 5.55555560e-002 8.33333358e-002 1.11111112e-001
      1.11111112e-001 1.11111112e-001 1.38888896e-001 1.38888896e-001
      1.66666672e-001 1.94444448e-001 2.22222224e-001 2.50000000e-001
      3.05555552e-001 3.33333343e-001 3.88888896e-001 4.16666657e-001
      4.16666657e-001 4.16666657e-001 5.83333313e-001 6.94444418e-001
      6.38888896e-001 5.27777791e-001 4.44444448e-001 2.22222224e-001 0.
      0. 0. 1. 9.91150439e-001 6.63716793e-001 4.86725658e-001
      3.71681422e-001 3.53982300e-001 3.27433616e-001 3.18584085e-001
      3.27433616e-001 3.53982300e-001 3.45132738e-001 3.45132738e-001
      3.62831861e-001 3.53982300e-001 3.53982300e-001 3.53982300e-001
      3.45132738e-001 3.53982300e-001 3.45132738e-001 3.27433616e-001
      3.36283177e-001 3.36283177e-001 3.62831861e-001 3.53982300e-001
      3.71681422e-001 3.80530983e-001 4.24778759e-001 4.15929198e-001
      3.80530983e-001 3.53982300e-001 3.36283177e-001 3.18584085e-001
      3.80530983e-001 4.60177004e-001 6.37168169e-001 7.96460152e-001</_>
    <_>
      5.00000000e-001 6.25000000e-001 5.00000000e-001 5.00000000e-001
      5.00000000e-001 5.00000000e-001 5.00000000e-001 5.00000000e-001
      5.00000000e-001 5.00000000e-001 6.25000000e-001 3.75000000e-001
      5.00000000e-001 3.75000000e-001 3.75000000e-001 3.75000000e-001
      5.00000000e-001 5.00000000e-001 5.00000000e-001 5.00000000e-001
      5.00000000e-001 5.00000000e-001 5.00000000e-001 5.00000000e-001
      6.25000000e-001 6.25000000e-001 5.00000000e-001 5.00000000e-001
      5.00000000e-001 6.25000000e-001 6.25000000e-001 5.00000000e-001
      5.00000000e-001 5.00000000e-001 5.00000000e-001 5.00000000e-001
      6.25000000e-001 6.25000000e-001 5.00000000e-001 5.00000000e-001
      5.00000000e-001 5.00000000e-001 6.25000000e-001 6.25000000e-001
      6.25000000e-001 6.25000000e-001 5.00000000e-001 5.00000000e-001
      5.00000000e-001 6.25000000e-001 6.25000000e-001 1. 1.
      6.25000000e-001 5.00000000e-001 8.75000000e-001 7.50000000e-001
      6.25000000e-001 5.00000000e-001 5.00000000e-001 5.00000000e-001
      5.00000000e-001 6.25000000e-001 6.25000000e-001 6.25000000e-001
      5.00000000e-001 5.00000000e-001 5.00000000e-001 5.00000000e-001
      5.00000000e-001 5.00000000e-001 6.25000000e-001 6.25000000e-001
      6.25000000e-001 6.25000000e-001 5.00000000e-001 5.00000000e-001
      6.25000000e-001 7.50000000e-001 7.50000000e-001 6.25000000e-001
      7.50000000e-001 7.50000000e-001 6.25000000e-001 5.00000000e-001
      5.00000000e-001 5.00000000e-001 5.00000000e-001 5.00000000e-001
      5.00000000e-001 5.00000000e-001 5.00000000e-001 5.00000000e-001
      5.00000000e-001 3.75000000e-001 3.75000000e-001 3.75000000e-001
      3.75000000e-001 3.75000000e-001 3.75000000e-001 3.75000000e-001
      3.75000000e-001 3.75000000e-001 3.75000000e-001 3.75000000e-001
      3.75000000e-001 3.75000000e-001 3.75000000e-001 3.75000000e-001
      3.75000000e-001 3.75000000e-001 3.75000000e-001 3.75000000e-001
      3.75000000e-001 3.75000000e-001 3.75000000e-001 3.75000000e-001
      3.75000000e-001 3.75000000e-001 2.50000000e-001 3.75000000e-001
      2.50000000e-001 3.75000000e-001 3.75000000e-001 3.75000000e-001
      6.25000000e-001 5.00000000e-001 6.25000000e-001 6.25000000e-001
      3.75000000e-001 3.75000000e-001 1.25000000e-001 0. 0. 0. 0.
      1.30434781e-001 1.30434781e-001 1.15942031e-001 1.59420297e-001
      1.88405797e-001 2.46376812e-001 2.75362313e-001 3.33333343e-001
      3.47826093e-001 4.05797094e-001 4.49275374e-001 4.20289844e-001
      4.34782594e-001 4.78260875e-001 5.07246375e-001 7.24637687e-001 1.
      8.26086938e-001 5.36231875e-001 0. 0. 0. 0. 0. 0. 0. 0. 0.
      1.44927539e-002 0. 0. 2.89855078e-002 1.44927539e-002 0. 0. 0.</_>
    <_>
      2.50000000e-001 2.77777791e-001 9.16666687e-001 1. 1. 1. 1. 1.
      6.38888896e-001 5.55555560e-002 0. 0. 0. 0. 0. 0. 0. 0. 0. 0. 0.
      0. 0. 0. 0. 0. 0. 0. 0. 0. 0. 0. 0. 0. 0. 0. 0. 0. 0. 0. 0. 0. 0.
      3.05555552e-001 4.72222209e-001 5.00000000e-001 5.55555582e-001
      5.83333313e-001 6.11111104e-001 6.66666687e-001 2.77777791e-001
      2.77777791e-001 2.77777791e-001 2.77777791e-001 2.50000000e-001
      4.16666657e-001 1. 1. 1. 1. 1. 1. 8.05555582e-001 1.66666672e-001
      5.55555560e-002 0. 0. 0. 4.44444448e-001 5.55555582e-001
      5.83333313e-001 6.38888896e-001 6.94444418e-001 6.94444418e-001
      7.22222209e-001 6.38888896e-001 4.16666657e-001 3.05555552e-001
      2.77777791e-001 2.77777791e-001 3.05555552e-001 3.05555552e-001
      3.33333343e-001 4.44444448e-001 4.72222209e-001 5.00000000e-001
      5.00000000e-001 4.72222209e-001 3.88888896e-001 3.61111104e-001
      1.94444448e-001 0. 0. 0. 0. 0. 0. 0. 0. 0. 0. 0. 0. 0. 0. 0. 0. 0.
      0. 0. 0. 0. 0. 0. 0. 0. 0. 0. 1.66666672e-001 1. 1. 1. 1. 1. 1. 1.
      6.66666687e-001 3.88888896e-001 4.72222209e-001 5.00000000e-001
      5.00000000e-001 5.00000000e-001 5.00000000e-001 5.55555582e-001
      9.16666687e-001 1. 5.89285731e-001 5.89285731e-001 5.71428597e-001
      5.53571403e-001 5.89285731e-001 5.71428597e-001 5.53571403e-001
      5.71428597e-001 5.89285731e-001 5.89285731e-001 8.57142866e-001
      9.46428597e-001 9.82142866e-001 1. 9.82142866e-001 9.28571403e-001
      9.28571403e-001 9.46428597e-001 9.10714269e-001 9.82142866e-001
      9.82142866e-001 9.64285731e-001 9.28571403e-001 8.21428597e-001
      7.14285731e-001 7.14285731e-001 6.96428597e-001 6.96428597e-001
      6.96428597e-001 6.96428597e-001 7.14285731e-001 7.85714269e-001
      8.03571403e-001 7.85714269e-001 8.03571403e-001 8.21428597e-001</_>
    <_>
      1. 1. 6.11111104e-001 5.55555582e-001 4.72222209e-001
      4.16666657e-001 3.61111104e-001 3.88888896e-001 3.88888896e-001
      3.61111104e-001 3.33333343e-001 3.33333343e-001 3.33333343e-001
      3.33333343e-001 3.33333343e-001 3.33333343e-001 3.33333343e-001
      3.61111104e-001 3.61111104e-001 5.00000000e-001 5.27777791e-001
      5.55555582e-001 5.83333313e-001 5.83333313e-001 5.83333313e-001
      5.83333313e-001 6.11111104e-001 6.11111104e-001 6.11111104e-001
      6.11111104e-001 6.38888896e-001 6.38888896e-001 6.38888896e-001
      6.11111104e-001 6.11111104e-001 5.83333313e-001 5.83333313e-001
      5.55555582e-001 5.55555582e-001 5.27777791e-001 5.27777791e-001
      5.55555582e-001 5.55555582e-001 6.11111104e-001 6.38888896e-001
      6.38888896e-001 6.38888896e-001 6.11111104e-001 6.11111104e-001
      6.11111104e-001 6.11111104e-001 6.11111104e-001 6.11111104e-001
      6.11111104e-001 6.38888896e-001 4.72222209e-001 4.72222209e-001
      4.16666657e-001 3.61111104e-001 2.50000000e-001 1.66666672e-001
      1.38888896e-001 1.11111112e-001 8.33333358e-002 5.55555560e-002 0.
      0. 0. 0. 0. 0. 0. 2.77777780e-002 1.66666672e-001 3.33333343e-001
      3.88888896e-001 4.44444448e-001 5.27777791e-001 5.27777791e-001
      5.27777791e-001 5.27777791e-001 5.55555582e-001 5.83333313e-001
      6.11111104e-001 6.11111104e-001 6.11111104e-001 6.11111104e-001
      6.11111104e-001 6.11111104e-001 6.11111104e-001 6.11111104e-001
      5.83333313e-001 5.83333313e-001 5.83333313e-001 5.83333313e-001
      5.83333313e-001 5.83333313e-001 6.11111104e-001 5.83333313e-001
      5.83333313e-001 6.11111104e-001 5.83333313e-001 5.83333313e-001
      5.83333313e-001 5.83333313e-001 5.83333313e-001 6.11111104e-001
      6.11111104e-001 5.83333313e-001 5.83333313e-001 5.83333313e-001
      5.27777791e-001 5.27777791e-001 5.00000000e-001 4.44444448e-001
      3.61111104e-001 3.61111104e-001 3.61111104e-001 3.61111104e-001
      3.61111104e-001 3.88888896e-001 3.88888896e-001 3.88888896e-001
      3.88888896e-001 3.88888896e-001 4.16666657e-001 4.44444448e-001
      5.00000000e-001 5.55555582e-001 6.11111104e-001 6.94444418e-001 1.
      1. 1. 1. 1. 8.59375000e-002 8.59375000e-002 7.81250000e-002
      7.03125000e-002 7.81250000e-002 6.25000000e-002 2.65625000e-001
      5.78125000e-001 6.09375000e-001 6.48437500e-001 6.71875000e-001
      6.64062500e-001 6.48437500e-001 5.62500000e-001 4.29687500e-001
      1.56250000e-001 1.01562500e-001 8.59375000e-002 8.59375000e-002
      1.01562500e-001 1.17187500e-001 1.48437500e-001 4.21875000e-001
      8.20312500e-001 9.06250000e-001 9.21875000e-001 9.29687500e-001
      9.37500000e-001 9.45312500e-001 9.45312500e-001 9.60937500e-001
      9.68750000e-001 9.76562500e-001 9.92187500e-001 1. 1.</_>
    <_>
      0. 0. 3.18181813e-001 5.45454562e-001 6.81818187e-001
      6.36363626e-001 5.45454562e-001 5.45454562e-001 4.09090906e-001
      5.00000000e-001 5.90909064e-001 7.27272749e-001 5.45454562e-001
      3.18181813e-001 2.72727281e-001 3.18181813e-001 5.45454562e-001
      4.09090906e-001 4.54545468e-001 2.72727281e-001 2.27272734e-001
      3.63636374e-001 5.90909064e-001 5.45454562e-001 1.81818187e-001
      1.81818187e-001 9.09090936e-002 4.54545468e-002 0. 1.36363640e-001
      2.27272734e-001 2.72727281e-001 1.81818187e-001 1.36363640e-001
      9.09090936e-002 1.81818187e-001 2.27272734e-001 5.00000000e-001
      6.36363626e-001 5.45454562e-001 4.54545468e-001 4.54545468e-001
      5.00000000e-001 7.72727251e-001 9.54545438e-001 9.09090936e-001
      8.18181813e-001 6.81818187e-001 7.27272749e-001 6.36363626e-001
      8.18181813e-001 8.18181813e-001 7.27272749e-001 4.54545468e-001
      1.36363640e-001 0. 4.54545468e-002 0. 0. 0. 4.54545468e-002 0.
      9.09090936e-002 4.54545468e-002 4.54545468e-002 9.09090936e-002
      4.54545468e-002 2.72727281e-001 3.63636374e-001 5.45454562e-001
      7.72727251e-001 9.09090936e-001 8.63636374e-001 9.09090936e-001
      8.63636374e-001 9.54545438e-001 1. 1. 9.54545438e-001
      9.54545438e-001 9.09090936e-001 9.09090936e-001 8.18181813e-001
      7.27272749e-001 8.18181813e-001 8.18181813e-001 8.18181813e-001
      8.18181813e-001 6.36363626e-001 6.36363626e-001 6.81818187e-001
      6.81818187e-001 6.36363626e-001 4.54545468e-001 2.27272734e-001
      2.27272734e-001 1.81818187e-001 1.36363640e-001 9.09090936e-002 0.
      0. 0. 0. 9.09090936e-002 2.27272734e-001 2.27272734e-001
      2.27272734e-001 2.27272734e-001 6.36363626e-001 7.27272749e-001
      6.81818187e-001 6.81818187e-001 5.45454562e-001 5.90909064e-001
      6.81818187e-001 6.81818187e-001 5.90909064e-001 8.18181813e-001
      7.27272749e-001 5.45454562e-001 3.18181813e-001 0. 0.
      4.54545468e-002 9.09090936e-002 4.54545468e-002 9.09090936e-002
      4.54545468e-002 0. 0. 0. 0. 0. 0. 0. 0. 0. 1.16666667e-001
      2.50000000e-001 3.66666675e-001 3.33333343e-001 3.00000012e-001
      3.66666675e-001 4.00000006e-001 5.33333361e-001 6.00000024e-001
      7.66666651e-001 8.16666663e-001 1. 9.49999988e-001 7.83333361e-001
      8.16666663e-001 8.83333325e-001 9.16666687e-001 9.49999988e-001
      8.50000024e-001 8.83333325e-001 8.99999976e-001 9.66666639e-001
      9.16666687e-001 8.00000012e-001 7.16666639e-001 7.50000000e-001
      6.16666675e-001 5.33333361e-001 3.16666663e-001 2.00000003e-001
      1.00000001e-001 1.33333340e-001 1.33333340e-001 1.83333337e-001
      1.66666672e-001</_>
    <_>
      5.45454562e-001 9.09090936e-001 1. 1.81818187e-001 8.18181813e-001
      8.18181813e-001 8.18181813e-001 8.18181813e-001 2.72727281e-001
      2.72727281e-001 2.72727281e-001 2.72727281e-001 2.72727281e-001
      2.72727281e-001 1.81818187e-001 1.81818187e-001 1.81818187e-001
      9.09090936e-001 9.09090936e-001 1. 1. 5.45454562e-001
      5.45454562e-001 6.36363626e-001 1. 1. 1. 7.27272749e-001
      3.63636374e-001 3.63636374e-001 4.54545468e-001 4.54545468e-001
      4.54545468e-001 4.54545468e-001 3.63636374e-001 3.63636374e-001
      9.09090936e-001 1. 1. 1. 7.27272749e-001 7.27272749e-001
      8.18181813e-001 9.09090936e-001 1. 9.09090936e-001 7.27272749e-001
      3.63636374e-001 3.63636374e-001 9.09090936e-001 9.09090936e-001
      9.09090936e-001 9.09090936e-001 7.27272749e-001 7.27272749e-001
      8.18181813e-001 9.09090936e-001 9.09090936e-001 9.09090936e-001
      7.27272749e-001 3.63636374e-001 3.63636374e-001 4.54545468e-001
      4.54545468e-001 4.54545468e-001 4.54545468e-001 3.63636374e-001
      3.63636374e-001 1. 1. 1. 1. 7.27272749e-001 7.27272749e-001
      7.27272749e-001 9.09090936e-001 1. 1. 8.18181813e-001
      3.63636374e-001 3.63636374e-001 5.45454562e-001 6.36363626e-001
      7.27272749e-001 8.18181813e-001 9.09090936e-001 1. 1.
      8.18181813e-001 7.27272749e-001 5.45454562e-001 4.54545468e-001
      3.63636374e-001 3.63636374e-001 4.54545468e-001 4.54545468e-001
      4.54545468e-001 4.54545468e-001 3.63636374e-001 3.63636374e-001 1.
      1. 1. 1. 8.18181813e-001 7.27272749e-001 7.27272749e-001
      7.27272749e-001 6.36363626e-001 3.63636374e-001 3.63636374e-001
      1.81818187e-001 1.81818187e-001 8.18181813e-001 8.18181813e-001
      8.18181813e-001 8.18181813e-001 6.36363626e-001 6.36363626e-001
      6.36363626e-001 8.18181813e-001 8.18181813e-001 8.18181813e-001
      8.18181813e-001 9.09090936e-001 9.09090936e-001 6.36363626e-001 0.
      0. 9.09090936e-002 2.72727281e-001 3.63636374e-001 0.
      9.09090936e-002 0. 0. 9.76190448e-001 2.38095243e-002
      6.19047642e-001 4.28571433e-001 5.79365075e-001 7.14285731e-001
      4.92063493e-001 5.39682567e-001 6.19047642e-001 3.96825410e-002 1.
      7.30158746e-001 6.98412716e-001 0. 0. 7.93650839e-003
      2.38095243e-002 1.58730168e-002 7.93650839e-003 7.93650839e-003 0.
      0. 0. 0. 0. 0. 0. 0. 0. 0. 0. 0. 0. 0. 0. 7.93650839e-003</_>
    <_>
      4.09090906e-001 4.54545468e-001 5.00000000e-001 5.00000000e-001
      5.00000000e-001 5.00000000e-001 5.00000000e-001 4.54545468e-001
      5.00000000e-001 4.09090906e-001 3.63636374e-001 2.27272734e-001
      2.27272734e-001 2.72727281e-001 2.72727281e-001 2.72727281e-001
      3.18181813e-001 3.18181813e-001 3.18181813e-001 3.63636374e-001
      3.63636374e-001 4.09090906e-001 4.09090906e-001 3.63636374e-001
      4.54545468e-001 4.54545468e-001 4.54545468e-001 5.45454562e-001
      5.00000000e-001 5.90909064e-001 5.45454562e-001 4.54545468e-001
      5.45454562e-001 5.00000000e-001 6.36363626e-001 6.36363626e-001
      6.81818187e-001 6.81818187e-001 7.72727251e-001 8.18181813e-001
      8.18181813e-001 8.18181813e-001 7.27272749e-001 7.27272749e-001
      5.90909064e-001 5.45454562e-001 5.45454562e-001 5.00000000e-001
      5.90909064e-001 6.36363626e-001 6.36363626e-001 5.90909064e-001
      8.18181813e-001 8.63636374e-001 8.63636374e-001 9.09090936e-001
      9.09090936e-001 9.09090936e-001 1. 1. 9.09090936e-001
      8.63636374e-001 7.72727251e-001 7.72727251e-001 7.72727251e-001
      7.72727251e-001 6.81818187e-001 6.36363626e-001 6.36363626e-001
      6.81818187e-001 7.27272749e-001 7.27272749e-001 6.81818187e-001
      7.27272749e-001 8.18181813e-001 9.09090936e-001 9.54545438e-001
      9.09090936e-001 9.09090936e-001 9.09090936e-001 9.09090936e-001
      9.09090936e-001 8.18181813e-001 7.72727251e-001 7.27272749e-001
      7.27272749e-001 6.81818187e-001 7.27272749e-001 6.81818187e-001
      6.81818187e-001 6.81818187e-001 7.27272749e-001 7.27272749e-001
      7.27272749e-001 6.81818187e-001 6.81818187e-001 6.36363626e-001
      5.45454562e-001 5.45454562e-001 5.00000000e-001 5.00000000e-001
      4.54545468e-001 5.00000000e-001 5.00000000e-001 4.54545468e-001
      4.54545468e-001 4.54545468e-001 4.54545468e-001 4.09090906e-001
      4.09090906e-001 4.09090906e-001 4.09090906e-001 3.63636374e-001
      3.63636374e-001 3.63636374e-001 3.18181813e-001 3.18181813e-001
      3.18181813e-001 2.72727281e-001 2.72727281e-001 2.27272734e-001
      2.27272734e-001 2.27272734e-001 1.81818187e-001 1.36363640e-001
      1.36363640e-001 1.36363640e-001 1.36363640e-001 1.36363640e-001
      1.36363640e-001 1.36363640e-001 1.36363640e-001 9.09090936e-002
      4.54545468e-002 0. 0. 2.38095243e-002 7.14285746e-002
      7.14285746e-002 7.14285746e-002 2.38095243e-002 1.19047619e-001
      1.78571433e-001 2.14285716e-001 2.50000000e-001 3.45238090e-001
      3.69047612e-001 3.80952388e-001 4.64285702e-001 4.88095224e-001
      4.52380955e-001 5.00000000e-001 5.00000000e-001 4.64285702e-001
      4.64285702e-001 5.35714269e-001 6.19047642e-001 6.78571403e-001
      6.90476179e-001 7.61904776e-001 6.90476179e-001 6.66666687e-001
      8.09523821e-001 8.80952358e-001 9.16666687e-001 9.04761910e-001
      9.16666687e-001 9.16666687e-001 8.57142866e-001 9.52380955e-001
      9.88095224e-001 1.</_>
    <_>
      0. 0. 0. 0. 6.81818187e-001 7.72727251e-001 7.72727251e-001
      7.72727251e-001 5.90909064e-001 4.09090906e-001 1.36363640e-001 0.
      0. 0. 0. 3.63636374e-001 3.63636374e-001 3.63636374e-001
      3.63636374e-001 3.63636374e-001 3.63636374e-001 2.72727281e-001
      2.72727281e-001 3.18181813e-001 4.09090906e-001 4.09090906e-001
      3.63636374e-001 4.09090906e-001 9.09090936e-002 0. 0. 0. 0. 0. 0.
      4.09090906e-001 4.09090906e-001 5.90909064e-001 7.72727251e-001
      7.72727251e-001 6.81818187e-001 0. 0. 0. 0. 0. 0. 0. 0.
      7.27272749e-001 7.72727251e-001 1. 1. 9.09090936e-001
      5.90909064e-001 5.00000000e-001 2.72727281e-001 4.54545468e-002 0.
      0. 5.00000000e-001 5.45454562e-001 4.09090906e-001 4.54545468e-001
      4.54545468e-001 3.18181813e-001 2.72727281e-001 2.72727281e-001
      3.63636374e-001 4.09090906e-001 4.54545468e-001 4.54545468e-001
      5.00000000e-001 2.27272734e-001 9.09090936e-002 0. 1.81818187e-001
      3.63636374e-001 5.45454562e-001 5.45454562e-001 5.90909064e-001
      5.00000000e-001 5.00000000e-001 5.90909064e-001 7.27272749e-001
      7.27272749e-001 1.81818187e-001 0. 0. 0. 0. 0. 0. 0.
      6.36363626e-001 7.27272749e-001 8.18181813e-001 9.54545438e-001
      9.09090936e-001 7.72727251e-001 5.00000000e-001 2.72727281e-001
      2.27272734e-001 9.09090936e-002 4.54545468e-002 5.00000000e-001
      5.45454562e-001 5.00000000e-001 5.00000000e-001 4.54545468e-001
      3.63636374e-001 2.72727281e-001 2.27272734e-001 3.18181813e-001
      3.63636374e-001 4.09090906e-001 4.09090906e-001 5.00000000e-001
      1.36363640e-001 9.09090936e-002 0. 2.72727281e-001 6.81818187e-001
      5.90909064e-001 5.45454562e-001 5.00000000e-001 5.45454562e-001
      7.27272749e-001 8.18181813e-001 7.72727251e-001 7.72727251e-001
      2.27272734e-001 0. 0. 0. 0. 0. 0. 4.87804860e-002 1.46341458e-001
      1.34146348e-001 1.70731708e-001 2.31707320e-001 2.80487806e-001
      3.65853667e-001 4.39024389e-001 5.97561002e-001 7.31707335e-001
      8.53658557e-001 9.26829278e-001 9.75609779e-001 1. 9.14634168e-001
      8.78048778e-001 7.92682946e-001 6.46341443e-001 5.48780501e-001
      4.14634138e-001 3.65853667e-001 3.65853667e-001 3.29268306e-001
      2.56097555e-001 1.82926834e-001 1.09756097e-001 3.65853645e-002 0.
      0. 0. 0. 0. 0. 0.</_>
    <_>
      5.71428575e-002 5.71428575e-002 8.57142881e-002 1.14285715e-001
      1.14285715e-001 1.14285715e-001 1.14285715e-001 8.57142881e-002
      8.57142881e-002 8.57142881e-002 8.57142881e-002 5.71428575e-002
      5.71428575e-002 5.71428575e-002 5.71428575e-002 5.71428575e-002
      5.71428575e-002 5.71428575e-002 8.57142881e-002 8.57142881e-002
      8.57142881e-002 1.14285715e-001 1.71428576e-001 1.71428576e-001
      1.42857149e-001 1.42857149e-001 1.71428576e-001 2.28571430e-001
      2.57142872e-001 2.57142872e-001 3.14285725e-001 2.85714298e-001
      3.14285725e-001 3.42857152e-001 4.00000006e-001 4.57142860e-001
      5.14285743e-001 6.57142878e-001 6.85714304e-001 6.85714304e-001
      7.71428585e-001 8.85714293e-001 9.71428573e-001 1. 1. 1. 1. 1. 1.
      9.71428573e-001 9.71428573e-001 8.85714293e-001 8.85714293e-001
      8.28571439e-001 8.00000012e-001 7.71428585e-001 7.42857158e-001
      6.85714304e-001 6.57142878e-001 6.28571451e-001 6.00000024e-001
      6.00000024e-001 5.71428597e-001 5.14285743e-001 4.85714287e-001
      4.57142860e-001 4.28571433e-001 4.00000006e-001 4.00000006e-001
      5.14285743e-001 6.57142878e-001 6.85714304e-001 6.85714304e-001
      5.71428597e-001 5.42857170e-001 4.85714287e-001 4.57142860e-001
      4.28571433e-001 3.42857152e-001 3.42857152e-001 3.71428579e-001
      4.28571433e-001 4.00000006e-001 3.42857152e-001 3.71428579e-001
      4.00000006e-001 3.71428579e-001 4.28571433e-001 4.85714287e-001
      5.14285743e-001 5.71428597e-001 5.42857170e-001 6.00000024e-001
      6.57142878e-001 5.71428597e-001 4.85714287e-001 3.71428579e-001
      4.28571433e-001 4.57142860e-001 4.85714287e-001 6.00000024e-001
      6.57142878e-001 6.85714304e-001 5.71428597e-001 5.14285743e-001
      5.14285743e-001 4.57142860e-001 4.28571433e-001 4.00000006e-001
      3.42857152e-001 3.42857152e-001 4.28571433e-001 4.28571433e-001
      4.00000006e-001 3.71428579e-001 3.71428579e-001 4.00000006e-001
      4.00000006e-001 4.28571433e-001 4.57142860e-001 5.14285743e-001
      5.71428597e-001 5.71428597e-001 6.00000024e-001 6.28571451e-001
      6.28571451e-001 6.28571451e-001 5.71428597e-001 4.57142860e-001
      3.71428579e-001 4.00000006e-001 4.85714287e-001 4.57142860e-001
      4.00000006e-001 3.42857152e-001 3.71428579e-001 5.15151501e-001
      4.24242437e-001 4.24242437e-001 3.71212125e-001 3.10606062e-001
      3.25757563e-001 3.25757563e-001 3.18181813e-001 3.25757563e-001
      3.03030312e-001 2.95454532e-001 2.87878782e-001 3.03030312e-001
      3.18181813e-001 3.25757563e-001 3.33333343e-001 3.48484844e-001
      3.48484844e-001 2.42424250e-001 1.89393938e-001 1.28787875e-001
      1.21212125e-001 1.28787875e-001 1.74242422e-001 3.56060594e-001
      5.37878811e-001 7.04545438e-001 7.87878811e-001 7.95454562e-001
      8.03030312e-001 8.40909064e-001 8.48484874e-001 8.40909064e-001
      8.63636374e-001 8.93939376e-001 1.</_>
    <_>
      0. 0. 0. 0. 0. 0. 0. 0. 0. 0. 0. 0. 0. 0. 0. 2.30769232e-001
      1.92307696e-001 1.53846160e-001 7.69230798e-002 1.92307696e-001
      1.53846160e-001 1.53846160e-001 1.53846160e-001 7.69230798e-002 0.
      2.30769232e-001 8.46153855e-001 6.92307711e-001 6.92307711e-001
      7.30769217e-001 7.30769217e-001 7.69230783e-001 7.69230783e-001
      8.07692289e-001 8.46153855e-001 8.84615362e-001 8.84615362e-001
      8.84615362e-001 8.84615362e-001 8.84615362e-001 8.84615362e-001
      8.84615362e-001 8.84615362e-001 8.84615362e-001 9.61538434e-001 1.
      1. 8.46153855e-001 7.69230783e-001 6.53846145e-001 5.00000000e-001
      4.23076928e-001 3.07692319e-001 1.53846160e-001 0. 3.84615399e-002
      0. 0. 1.53846160e-001 2.69230783e-001 3.84615391e-001
      5.38461566e-001 8.07692289e-001 7.69230783e-001 6.15384638e-001
      5.00000000e-001 2.69230783e-001 3.84615399e-002 0. 0. 0. 0. 0. 0.
      0. 0. 0. 0. 0. 0. 0. 0. 0. 0. 0. 4.61538464e-001 2.69230783e-001
      1.15384616e-001 7.69230798e-002 3.84615399e-002 0. 0. 0. 0.
      3.84615399e-002 1.92307696e-001 3.46153855e-001 4.61538464e-001
      6.92307711e-001 8.07692289e-001 8.46153855e-001 7.69230783e-001
      9.61538434e-001 8.84615362e-001 8.84615362e-001 9.23076928e-001
      9.61538434e-001 9.23076928e-001 8.84615362e-001 8.46153855e-001
      8.46153855e-001 9.61538434e-001 9.61538434e-001 9.61538434e-001
      9.61538434e-001 9.61538434e-001 9.23076928e-001 6.53846145e-001
      5.76923072e-001 4.61538464e-001 3.84615391e-001 3.46153855e-001
      3.46153855e-001 3.84615391e-001 3.46153855e-001 7.69230798e-002
      1.15384616e-001 2.30769232e-001 4.23076928e-001 5.00000000e-001
      6.15384638e-001 5.38461566e-001 4.23076928e-001 1.92307696e-001 0.
      0. 4.76190485e-002 7.93650821e-002 1.11111112e-001 1.74603179e-001
      1.58730164e-001 1.74603179e-001 1.90476194e-001 2.22222224e-001
      2.53968269e-001 2.22222224e-001 2.38095239e-001 4.44444448e-001
      5.55555582e-001 7.30158746e-001 7.93650806e-001 8.25396836e-001
      9.04761910e-001 9.04761910e-001 9.52380955e-001 9.52380955e-001
      9.84126985e-001 1. 9.68253970e-001 9.36507940e-001 9.04761910e-001
      9.04761910e-001 8.73015881e-001 8.41269851e-001 8.09523821e-001
      7.77777791e-001 7.61904776e-001 7.30158746e-001 6.50793672e-001
      6.66666687e-001 6.19047642e-001 5.23809552e-001</_>
    <_>
      1.47058830e-001 2.05882356e-001 2.05882356e-001 2.05882356e-001
      2.05882356e-001 2.05882356e-001 2.35294119e-001 1. 1. 1. 1.
      9.70588207e-001 3.52941185e-001 2.35294119e-001 2.35294119e-001
      2.05882356e-001 2.05882356e-001 2.05882356e-001 1.76470593e-001
      1.76470593e-001 0. 4.41176474e-001 5.88235319e-001 7.05882370e-001
      7.94117630e-001 8.52941155e-001 5.88235319e-001 5.29411793e-001
      4.70588237e-001 4.41176474e-001 4.41176474e-001 4.11764711e-001
      3.82352948e-001 4.11764711e-001 4.11764711e-001 4.70588237e-001
      5.00000000e-001 5.88235319e-001 7.35294104e-001 8.52941155e-001
      7.64705896e-001 7.05882370e-001 5.88235319e-001 3.52941185e-001
      1.47058830e-001 0. 1.17647059e-001 1.76470593e-001 2.64705896e-001
      3.23529422e-001 4.11764711e-001 4.41176474e-001 4.70588237e-001
      7.94117630e-001 7.05882370e-001 6.47058845e-001 6.47058845e-001
      7.05882370e-001 4.11764711e-001 3.82352948e-001 3.82352948e-001
      3.82352948e-001 3.52941185e-001 2.94117659e-001 2.35294119e-001
      1.76470593e-001 8.82352963e-002 0. 4.11764711e-001 5.88235319e-001
      7.05882370e-001 7.94117630e-001 8.52941155e-001 7.05882370e-001
      5.58823526e-001 4.41176474e-001 4.41176474e-001 4.11764711e-001
      4.11764711e-001 4.11764711e-001 4.11764711e-001 3.82352948e-001
      4.70588237e-001 4.70588237e-001 5.29411793e-001 6.76470578e-001
      8.52941155e-001 7.94117630e-001 6.76470578e-001 5.88235319e-001
      4.41176474e-001 2.94117648e-002 0. 1.47058830e-001 2.05882356e-001
      2.05882356e-001 2.05882356e-001 2.05882356e-001 2.05882356e-001
      5.29411793e-001 9.70588207e-001 1. 1. 1. 8.52941155e-001
      2.05882356e-001 2.05882356e-001 2.05882356e-001 2.05882356e-001
      2.05882356e-001 2.05882356e-001 3.52941185e-001 4.11764711e-001
      3.82352948e-001 4.70588237e-001 5.58823526e-001 5.00000000e-001
      5.29411793e-001 6.47058845e-001 7.35294104e-001 6.47058845e-001
      5.00000000e-001 4.41176474e-001 4.70588237e-001 6.76470578e-001
      7.94117630e-001 7.64705896e-001 6.47058845e-001 6.76470578e-001
      5.58823526e-001 4.41176474e-001 3.23529422e-001 2.05882356e-001
      8.82352963e-002 0. 0. 3.06122452e-001 7.34693885e-001
      8.67346942e-001 8.97959173e-001 9.28571403e-001 9.69387770e-001 1.
      8.06122422e-001 6.22448981e-001 5.91836751e-001 5.81632674e-001
      5.91836751e-001 5.71428597e-001 5.51020384e-001 5.51020384e-001
      5.51020384e-001 5.40816307e-001 5.20408154e-001 4.79591846e-001
      4.89795923e-001 5.20408154e-001 5.30612230e-001 5.81632674e-001
      5.71428597e-001 6.02040827e-001 6.02040827e-001 6.42857134e-001
      6.02040827e-001 6.02040827e-001 6.42857134e-001 5.91836751e-001
      5.71428597e-001 5.51020384e-001 4.89795923e-001 3.26530606e-001
      7.14285746e-002</_>
    <_>
      3.75000000e-001 8.12500000e-001 8.75000000e-001 9.37500000e-001
      9.37500000e-001 6.87500000e-001 6.25000000e-001 6.25000000e-001
      6.25000000e-001 6.25000000e-001 6.25000000e-001 6.25000000e-001
      9.37500000e-001 9.37500000e-001 8.75000000e-001 7.50000000e-001 0.
      0. 0. 0. 0. 0. 0. 0. 6.87500000e-001 8.75000000e-001
      9.37500000e-001 9.37500000e-001 6.25000000e-001 3.12500000e-001
      3.12500000e-001 3.12500000e-001 3.12500000e-001 3.12500000e-001
      3.12500000e-001 3.12500000e-001 8.75000000e-001 9.37500000e-001
      8.75000000e-001 7.50000000e-001 0. 0. 0. 0. 0. 0. 0. 0.
      8.12500000e-001 9.37500000e-001 9.37500000e-001 9.37500000e-001
      9.37500000e-001 9.37500000e-001 9.37500000e-001 9.37500000e-001
      9.37500000e-001 9.37500000e-001 9.37500000e-001 9.37500000e-001
      9.37500000e-001 9.37500000e-001 8.75000000e-001 3.12500000e-001 0.
      0. 2.50000000e-001 3.75000000e-001 2.50000000e-001 0. 0.
      1.87500000e-001 3.12500000e-001 3.12500000e-001 3.12500000e-001
      3.75000000e-001 3.75000000e-001 6.25000000e-001 1. 1. 1.
      8.75000000e-001 3.75000000e-001 3.75000000e-001 3.12500000e-001
      3.12500000e-001 3.12500000e-001 1.25000000e-001 0. 0. 0. 0. 0. 0.
      0. 7.50000000e-001 8.75000000e-001 1. 1. 1. 1. 1. 1. 1. 1. 1. 1.
      1. 8.12500000e-001 5.00000000e-001 0. 0. 0. 0. 0. 0. 0.
      7.50000000e-001 8.75000000e-001 8.75000000e-001 9.37500000e-001
      8.75000000e-001 7.50000000e-001 7.50000000e-001 7.50000000e-001
      6.87500000e-001 6.25000000e-001 7.50000000e-001 8.12500000e-001
      9.37500000e-001 9.37500000e-001 8.75000000e-001 7.50000000e-001 0.
      0. 0. 0. 0. 1.14942528e-002 3.44827585e-002 3.44827585e-002
      3.44827585e-002 3.44827585e-002 1.14942528e-002 0. 0. 0. 0. 0. 0.
      0. 0. 0. 0. 4.02298838e-001 8.62068951e-001 1. 9.88505721e-001
      9.77011502e-001 9.08045948e-001 7.70114958e-001 7.58620679e-001
      7.58620679e-001 7.58620679e-001 7.81609178e-001 9.65517223e-001
      8.96551728e-001 8.50574732e-001 7.58620679e-001 5.86206913e-001 0.
      0.</_>
    <_>
      4.33333337e-001 4.00000006e-001 3.66666675e-001 3.00000012e-001
      2.33333334e-001 2.00000003e-001 2.33333334e-001 2.66666681e-001
      2.66666681e-001 2.66666681e-001 2.66666681e-001 2.66666681e-001
      3.33333343e-001 4.66666669e-001 5.33333361e-001 6.00000024e-001
      6.33333325e-001 6.00000024e-001 5.33333361e-001 4.66666669e-001
      4.33333337e-001 2.66666681e-001 2.33333334e-001 2.33333334e-001
      2.33333334e-001 2.66666681e-001 2.66666681e-001 2.66666681e-001
      2.66666681e-001 3.00000012e-001 4.00000006e-001 5.66666663e-001
      6.33333325e-001 6.99999988e-001 6.00000024e-001 6.00000024e-001
      5.33333361e-001 3.66666675e-001 2.66666681e-001 1.33333340e-001
      1.66666672e-001 1.66666672e-001 1.66666672e-001 1.66666672e-001
      1.66666672e-001 1.66666672e-001 1.66666672e-001 3.66666675e-001
      5.00000000e-001 6.99999988e-001 6.33333325e-001 6.66666687e-001
      6.00000024e-001 5.00000000e-001 3.33333343e-001 2.00000003e-001
      6.66666701e-002 6.66666701e-002 1.00000001e-001 1.00000001e-001
      1.00000001e-001 1.00000001e-001 6.66666701e-002 6.66666701e-002
      2.33333334e-001 4.66666669e-001 7.66666651e-001 8.00000012e-001
      8.00000012e-001 6.00000024e-001 4.33333337e-001 2.66666681e-001
      6.66666701e-002 3.33333351e-002 3.33333351e-002 3.33333351e-002
      3.33333351e-002 3.33333351e-002 3.33333351e-002 3.33333351e-002 0.
      1.00000001e-001 5.33333361e-001 9.66666639e-001 1. 7.33333349e-001
      5.66666663e-001 3.00000012e-001 1.00000001e-001 0. 0. 0. 0. 0. 0.
      2.33333334e-001 4.00000006e-001 1.33333340e-001 1.66666672e-001
      2.66666681e-001 6.99999988e-001 6.33333325e-001 6.00000024e-001
      4.66666669e-001 1.33333340e-001 3.00000012e-001 3.00000012e-001
      2.66666681e-001 2.66666681e-001 2.66666681e-001 2.33333334e-001
      2.33333334e-001 2.66666681e-001 2.66666681e-001 3.33333343e-001
      2.33333334e-001 5.00000000e-001 5.66666663e-001 4.33333337e-001
      3.00000012e-001 1.33333340e-001 1.00000001e-001 1.00000001e-001
      1.00000001e-001 1.00000001e-001 1.00000001e-001 6.66666701e-002
      1.00000001e-001 6.66666701e-002 1.00000001e-001 1.00000001e-001
      1.00000001e-001 1.33333340e-001 4.33333337e-001 5.00000000e-001
      4.00000006e-001 3.38461548e-001 3.53846163e-001 3.69230777e-001
      4.00000006e-001 4.61538464e-001 4.46153849e-001 4.15384620e-001
      2.92307705e-001 2.92307705e-001 2.92307705e-001 3.07692319e-001
      3.38461548e-001 3.23076934e-001 3.23076934e-001 3.07692319e-001
      3.84615391e-001 3.84615391e-001 4.46153849e-001 4.92307693e-001
      5.07692337e-001 5.23076952e-001 4.92307693e-001 5.23076952e-001
      6.61538482e-001 6.30769253e-001 6.00000024e-001 6.46153867e-001
      5.53846180e-001 6.61538482e-001 8.61538470e-001 8.61538470e-001
      9.53846157e-001 1. 9.38461542e-001 9.38461542e-001 9.07692313e-001</_>
    <_>
      2.90322572e-001 3.22580636e-001 3.22580636e-001 3.22580636e-001
      2.90322572e-001 2.25806445e-001 2.58064508e-001 3.22580636e-001
      3.22580636e-001 3.87096763e-001 9.03225780e-001 1. 1. 1. 1. 1. 1.
      1. 1. 7.41935492e-001 3.22580636e-001 3.22580636e-001
      2.90322572e-001 3.22580636e-001 3.22580636e-001 2.90322572e-001
      2.90322572e-001 2.90322572e-001 6.45161271e-002 0. 0. 0. 0.
      6.45161271e-002 1.61290318e-001 1.61290318e-001 1.93548381e-001
      2.25806445e-001 9.67741907e-001 1. 1. 1. 1. 1. 1. 1. 1.
      7.74193525e-001 3.54838699e-001 3.54838699e-001 3.22580636e-001
      3.22580636e-001 2.58064508e-001 2.25806445e-001 2.25806445e-001
      2.58064508e-001 5.16129017e-001 5.16129017e-001 5.16129017e-001
      5.16129017e-001 4.51612890e-001 3.54838699e-001 2.90322572e-001
      2.90322572e-001 2.90322572e-001 1.29032254e-001 0. 0. 0. 0.
      1.93548381e-001 6.77419364e-001 7.09677398e-001 7.09677398e-001
      7.41935492e-001 8.06451619e-001 8.06451619e-001 8.06451619e-001
      8.38709652e-001 8.38709652e-001 3.54838699e-001 2.90322572e-001
      3.22580636e-001 3.22580636e-001 2.90322572e-001 2.90322572e-001
      2.90322572e-001 2.90322572e-001 2.90322572e-001 2.90322572e-001
      3.22580636e-001 2.90322572e-001 3.22580636e-001 4.83870953e-001
      8.06451619e-001 8.06451619e-001 8.06451619e-001 7.74193525e-001
      7.41935492e-001 7.09677398e-001 7.09677398e-001 7.09677398e-001
      6.77419364e-001 1.93548381e-001 0. 0. 0. 0. 0. 0. 0. 0. 0. 0. 0.
      0. 0. 0. 6.45161271e-002 6.45161271e-002 6.45161271e-002
      1.29032254e-001 3.87096763e-001 4.19354826e-001 4.19354826e-001
      3.87096763e-001 3.87096763e-001 3.22580636e-001 3.22580636e-001
      2.90322572e-001 2.58064508e-001 0. 0. 0. 0. 0. 0. 0.
      3.73134315e-001 9.25373137e-001 9.85074639e-001 1. 9.25373137e-001
      9.70149279e-001 9.70149279e-001 9.55223858e-001 8.95522416e-001
      8.35820913e-001 7.61194050e-001 7.16417909e-001 7.76119411e-001
      7.61194050e-001 7.91044772e-001 9.40298498e-001 7.76119411e-001
      7.76119411e-001 5.97014904e-001 5.67164183e-001 6.86567187e-001
      7.16417909e-001 7.16417909e-001 7.16417909e-001 7.01492548e-001
      7.01492548e-001 7.01492548e-001 7.16417909e-001 8.50746274e-001
      9.40298498e-001 7.91044772e-001 3.88059705e-001 5.97014911e-002 0.</_>
    <_>
      0. 0. 0. 0. 2.50000000e-001 2.50000000e-001 0. 0. 0. 0. 0. 0. 0.
      0. 0. 0. 0. 2.50000000e-001 3.00000012e-001 3.49999994e-001
      2.00000003e-001 2.00000003e-001 2.00000003e-001 3.49999994e-001
      6.99999988e-001 8.00000012e-001 7.50000000e-001 8.00000012e-001
      8.50000024e-001 8.00000012e-001 8.00000012e-001 8.00000012e-001
      8.50000024e-001 8.50000024e-001 8.00000012e-001 8.00000012e-001
      7.50000000e-001 4.49999988e-001 4.00000006e-001 4.00000006e-001
      4.00000006e-001 4.49999988e-001 4.00000006e-001 4.49999988e-001
      4.00000006e-001 2.50000000e-001 2.00000003e-001 2.50000000e-001
      2.50000000e-001 2.50000000e-001 3.00000012e-001 3.00000012e-001
      2.00000003e-001 0. 0. 0. 0. 0. 0. 0. 0. 0. 0. 0. 2.00000003e-001
      2.50000000e-001 4.00000006e-001 6.00000024e-001 6.99999988e-001
      7.50000000e-001 7.50000000e-001 8.00000012e-001 8.00000012e-001
      8.00000012e-001 1. 1. 1. 8.50000024e-001 7.50000000e-001
      7.50000000e-001 8.50000024e-001 8.00000012e-001 8.50000024e-001
      7.50000000e-001 8.00000012e-001 6.00000024e-001 3.49999994e-001
      2.50000000e-001 0. 5.00000007e-002 5.00000007e-002 0. 0. 0. 0. 0.
      0. 1.00000001e-001 2.50000000e-001 3.00000012e-001 8.99999976e-001
      1. 9.49999988e-001 8.99999976e-001 8.99999976e-001 8.00000012e-001
      8.50000024e-001 8.00000012e-001 7.50000000e-001 6.49999976e-001
      6.49999976e-001 6.00000024e-001 6.00000024e-001 6.00000024e-001
      6.00000024e-001 6.49999976e-001 6.00000024e-001 6.00000024e-001
      5.50000012e-001 6.49999976e-001 6.49999976e-001 6.99999988e-001
      6.49999976e-001 5.50000012e-001 5.50000012e-001 5.00000000e-001
      3.00000012e-001 3.00000012e-001 4.00000006e-001 4.49999988e-001
      3.49999994e-001 4.00000006e-001 3.00000012e-001 2.50000000e-001
      2.50000000e-001 2.50000000e-001 5.96774220e-001 6.93548381e-001
      8.54838729e-001 1. 9.83870983e-001 9.51612890e-001 7.58064508e-001
      5.00000000e-001 5.32258093e-001 4.51612890e-001 4.67741936e-001
      7.58064508e-001 7.90322602e-001 7.90322602e-001 7.90322602e-001
      7.58064508e-001 6.93548381e-001 5.96774220e-001 4.19354826e-001
      3.06451619e-001 2.58064508e-001 2.09677413e-001 2.41935477e-001
      2.09677413e-001 1.45161286e-001 1.93548381e-001 2.09677413e-001
      1.61290318e-001 8.06451589e-002 4.83870953e-002 1.77419350e-001
      4.67741936e-001 4.51612890e-001 4.83870953e-001 7.58064508e-001
      5.64516127e-001</_>
    <_>
      3.22580636e-002 0. 0. 0. 0. 0. 0. 0. 0. 4.51612890e-001
      6.12903237e-001 7.09677398e-001 8.38709652e-001 9.03225780e-001
      4.51612890e-001 4.19354826e-001 3.22580636e-001 9.67741907e-002 0.
      0. 0. 0. 0. 0. 1.93548381e-001 2.90322572e-001 3.22580636e-001
      9.03225780e-001 9.67741907e-001 9.67741907e-001 1. 9.67741907e-001
      1.61290318e-001 1.29032254e-001 1.29032254e-001 6.45161271e-002 0.
      0. 0. 0. 0. 0. 1.29032254e-001 2.25806445e-001 3.87096763e-001
      4.51612890e-001 8.38709652e-001 7.74193525e-001 6.12903237e-001
      5.80645144e-001 0. 0. 0. 0. 0. 0. 0. 0. 6.45161271e-002
      1.29032254e-001 3.87096763e-001 3.87096763e-001 3.54838699e-001
      3.22580636e-001 0. 0. 0. 0. 0. 0. 0. 0. 0. 0. 0. 0. 0. 0. 0. 0. 0.
      0. 0. 0. 0. 0. 0. 1.93548381e-001 5.80645144e-001 1. 1. 1. 1.
      4.19354826e-001 2.90322572e-001 2.25806445e-001 2.58064508e-001
      4.83870953e-001 4.51612890e-001 3.54838699e-001 2.90322572e-001 0.
      0. 0. 0. 2.90322572e-001 2.58064508e-001 3.22580636e-001
      3.54838699e-001 9.67741907e-001 9.67741907e-001 9.67741907e-001 1.
      4.19354826e-001 3.22580636e-001 2.58064508e-001 2.90322572e-001 0.
      0. 5.16129017e-001 5.80645144e-001 6.12903237e-001 6.12903237e-001
      4.83870953e-001 4.19354826e-001 4.19354826e-001 4.19354826e-001
      4.83870953e-001 5.16129017e-001 6.12903237e-001 6.12903237e-001
      6.12903237e-001 6.12903237e-001 9.67741907e-002 0. 0.
      9.25925896e-002 3.51851851e-001 9.25925910e-001 9.62962985e-001 1.
      9.62962985e-001 8.51851881e-001 8.51851881e-001 8.14814806e-001
      7.40740716e-001 6.29629612e-001 5.55555582e-001 5.55555582e-001
      6.11111104e-001 6.11111104e-001 5.92592597e-001 5.74074090e-001
      5.37037015e-001 5.18518507e-001 5.00000000e-001 5.00000000e-001
      5.18518507e-001 5.55555582e-001 5.92592597e-001 6.48148119e-001
      6.11111104e-001 6.48148119e-001 8.14814806e-001 9.07407403e-001
      9.81481493e-001 9.44444418e-001 6.29629612e-001 1.85185179e-001
      7.40740746e-002 3.70370373e-002 1.85185187e-002</_>
    <_>
      0. 0. 1.53846160e-001 1.53846160e-001 7.69230798e-002
      7.69230798e-002 7.69230798e-002 1.53846160e-001 1.53846160e-001
      1.53846160e-001 1.53846160e-001 2.30769232e-001 3.07692319e-001
      2.30769232e-001 7.69230798e-002 0. 0. 0. 0. 0. 7.69230798e-002
      7.69230798e-002 3.07692319e-001 1.53846160e-001 1.53846160e-001
      7.69230798e-002 1.53846160e-001 7.69230798e-002 7.69230798e-002
      7.69230798e-002 4.61538464e-001 5.38461566e-001 6.15384638e-001
      8.46153855e-001 8.46153855e-001 8.46153855e-001 1. 7.69230783e-001
      4.61538464e-001 9.23076928e-001 9.23076928e-001 8.46153855e-001
      6.92307711e-001 6.15384638e-001 3.07692319e-001 4.61538464e-001
      3.84615391e-001 4.61538464e-001 3.84615391e-001 4.61538464e-001
      3.07692319e-001 2.30769232e-001 7.69230798e-002 4.61538464e-001
      4.61538464e-001 3.84615391e-001 3.84615391e-001 5.38461566e-001
      6.92307711e-001 6.15384638e-001 5.38461566e-001 3.07692319e-001
      3.84615391e-001 3.07692319e-001 5.38461566e-001 6.15384638e-001
      6.15384638e-001 5.38461566e-001 3.84615391e-001 4.61538464e-001
      6.92307711e-001 1. 7.69230783e-001 6.15384638e-001 4.61538464e-001
      3.07692319e-001 3.84615391e-001 4.61538464e-001 3.84615391e-001
      2.30769232e-001 1.53846160e-001 6.92307711e-001 9.23076928e-001
      4.61538464e-001 3.07692319e-001 7.69230798e-002 0. 0. 0. 0.
      7.69230798e-002 7.69230798e-002 7.69230798e-002 1.53846160e-001
      2.30769232e-001 6.92307711e-001 5.38461566e-001 3.07692319e-001
      2.30769232e-001 2.30769232e-001 2.30769232e-001 2.30769232e-001
      1.53846160e-001 0. 0. 0. 0. 0. 1.53846160e-001 2.30769232e-001
      3.07692319e-001 3.84615391e-001 1.53846160e-001 0. 0. 0. 0.
      1.53846160e-001 2.30769232e-001 2.30769232e-001 2.30769232e-001
      2.30769232e-001 1.53846160e-001 1.53846160e-001 1.53846160e-001
      1.53846160e-001 2.30769232e-001 2.30769232e-001 2.30769232e-001
      2.30769232e-001 4.61538464e-001 6.15384638e-001 5.38461566e-001
      2.30769232e-001 0. 0. 5.40540554e-002 1.08108111e-001
      2.43243247e-001 3.24324310e-001 2.70270258e-001 1.62162155e-001
      1.35135129e-001 2.97297299e-001 2.70270258e-001 2.43243247e-001
      1.08108111e-001 1.89189196e-001 3.51351351e-001 4.32432443e-001
      6.21621609e-001 6.21621609e-001 5.40540516e-001 7.02702701e-001
      9.18918908e-001 6.48648620e-001 4.59459454e-001 6.75675690e-001
      5.13513505e-001 3.24324310e-001 2.97297299e-001 1.35135129e-001
      2.70270258e-001 5.67567587e-001 5.67567587e-001 5.40540516e-001
      3.78378391e-001 1.35135129e-001 4.86486495e-001 1. 1.
      8.10810775e-002</_>
    <_>
      0. 1.21212125e-001 2.12121218e-001 2.42424250e-001 2.72727281e-001
      3.03030312e-001 3.33333343e-001 3.33333343e-001 3.33333343e-001
      3.33333343e-001 2.72727281e-001 2.12121218e-001 1.81818187e-001
      1.51515156e-001 1.51515156e-001 1.51515156e-001 1.51515156e-001
      1.51515156e-001 2.12121218e-001 5.15151501e-001 8.78787875e-001 1.
      1. 1. 9.69696999e-001 9.69696999e-001 9.39393938e-001
      9.09090936e-001 8.78787875e-001 8.18181813e-001 0. 0. 0. 0. 0. 0.
      0. 0. 0. 0. 0. 0. 0. 0. 1.51515156e-001 1.81818187e-001
      3.33333343e-001 3.63636374e-001 3.03030312e-001 3.33333343e-001
      3.93939406e-001 4.84848499e-001 5.45454562e-001 6.06060624e-001
      6.66666687e-001 6.66666687e-001 6.66666687e-001 6.96969688e-001
      7.27272749e-001 7.57575750e-001 8.18181813e-001 7.57575750e-001
      6.66666687e-001 6.36363626e-001 5.45454562e-001 4.84848499e-001
      4.84848499e-001 5.45454562e-001 6.06060624e-001 6.66666687e-001
      7.87878811e-001 7.87878811e-001 7.27272749e-001 6.66666687e-001
      6.06060624e-001 5.45454562e-001 5.75757563e-001 5.75757563e-001
      4.84848499e-001 4.54545468e-001 3.93939406e-001 3.33333343e-001
      2.72727281e-001 2.12121218e-001 1.81818187e-001 9.09090936e-002 0.
      0. 0. 0. 0. 0. 0. 0. 0. 0. 0. 9.09090936e-002 3.33333343e-001
      4.24242437e-001 5.45454562e-001 5.75757563e-001 6.36363626e-001
      6.66666687e-001 6.96969688e-001 7.57575750e-001 8.18181813e-001
      8.78787875e-001 9.39393938e-001 9.39393938e-001 6.36363626e-001
      5.45454562e-001 4.84848499e-001 4.54545468e-001 4.24242437e-001
      3.93939406e-001 3.93939406e-001 3.93939406e-001 4.24242437e-001
      4.24242437e-001 4.84848499e-001 5.45454562e-001 6.96969688e-001
      6.66666687e-001 6.36363626e-001 5.75757563e-001 5.15151501e-001
      5.15151501e-001 4.54545468e-001 4.54545468e-001 3.93939406e-001
      3.63636374e-001 3.03030312e-001 1.81818187e-001 3.03030312e-002 0.
      4.18604642e-001 4.76744175e-001 5.34883738e-001 5.93023241e-001
      6.16279066e-001 6.62790716e-001 6.97674394e-001 6.62790716e-001
      6.62790716e-001 6.51162803e-001 5.11627913e-001 5.00000000e-001
      4.65116292e-001 4.76744175e-001 4.76744175e-001 4.88372087e-001
      5.00000000e-001 5.23255825e-001 5.34883738e-001 5.23255825e-001
      6.51162803e-001 8.02325606e-001 9.18604672e-001 9.30232584e-001
      9.65116262e-001 9.76744175e-001 1. 7.79069781e-001 7.90697694e-001
      7.20930219e-001 6.74418628e-001 5.69767416e-001 3.95348847e-001
      8.13953504e-002 3.48837227e-002 2.32558139e-002</_>
    <_>
      1. 4.44444448e-001 2.77777791e-001 6.38888896e-001 6.94444418e-001
      6.94444418e-001 6.38888896e-001 5.83333313e-001 6.66666687e-001
      8.61111104e-001 1. 1. 9.72222209e-001 3.88888896e-001
      1.11111112e-001 3.05555552e-001 3.33333343e-001 4.72222209e-001
      5.55555582e-001 6.94444418e-001 8.05555582e-001 1. 8.88888896e-001
      2.50000000e-001 1.11111112e-001 4.44444448e-001 6.66666687e-001
      6.38888896e-001 5.00000000e-001 7.50000000e-001 1. 1. 1.
      5.00000000e-001 1.11111112e-001 3.05555552e-001 3.33333343e-001
      4.16666657e-001 5.83333313e-001 6.66666687e-001 8.33333313e-001 1.
      1. 3.88888896e-001 3.05555552e-001 6.11111104e-001 6.94444418e-001
      6.94444418e-001 6.94444418e-001 5.55555582e-001 6.38888896e-001
      8.61111104e-001 1. 7.22222209e-001 1.11111112e-001 3.05555552e-001
      8.61111104e-001 9.72222209e-001 8.33333313e-001 8.33333313e-001
      8.33333313e-001 3.05555552e-001 8.33333358e-002 4.16666657e-001
      8.33333313e-001 8.88888896e-001 1. 1. 9.16666687e-001
      8.05555582e-001 6.94444418e-001 6.66666687e-001 3.33333343e-001
      2.77777791e-001 2.22222224e-001 8.05555582e-001 1. 1. 1. 1. 1. 1.
      1. 9.16666687e-001 3.05555552e-001 4.16666657e-001 5.00000000e-001
      4.72222209e-001 3.33333343e-001 3.33333343e-001 6.66666687e-001 1.
      1. 5.00000000e-001 2.77777791e-001 6.11111104e-001 6.94444418e-001
      7.22222209e-001 6.11111104e-001 1.94444448e-001 4.44444448e-001 1.
      1. 6.38888896e-001 3.33333343e-001 1.94444448e-001 6.66666687e-001
      6.94444418e-001 6.94444418e-001 3.88888896e-001 3.05555552e-001
      7.77777791e-001 1. 1. 4.72222209e-001 2.50000000e-001
      6.66666687e-001 6.94444418e-001 7.22222209e-001 5.55555582e-001
      2.50000000e-001 4.72222209e-001 1. 1. 3.88888896e-001
      2.77777780e-002 0. 5.00000000e-001 8.05555582e-001 8.05555582e-001
      8.05555582e-001 8.05555582e-001 8.05555582e-001 8.05555582e-001
      9.44444418e-001 1. 1. 8.42105269e-001 6.99248135e-001
      6.01503730e-001 5.48872173e-001 5.26315808e-001 5.41353405e-001
      6.09022558e-001 6.69172943e-001 6.84210539e-001 6.76691711e-001
      6.91729307e-001 6.91729307e-001 6.76691711e-001 6.69172943e-001
      6.54135346e-001 6.24060154e-001 6.16541326e-001 6.24060154e-001
      6.76691711e-001 6.76691711e-001 6.61654115e-001 6.69172943e-001
      6.84210539e-001 6.61654115e-001 6.46616518e-001 6.31578922e-001
      6.09022558e-001 6.16541326e-001 5.41353405e-001 5.33834577e-001
      5.33834577e-001 5.78947365e-001 6.54135346e-001 7.96992481e-001
      9.39849615e-001</_>
    <_>
      0. 1.17647059e-001 2.35294119e-001 3.23529422e-001 9.70588207e-001
      1. 9.70588207e-001 9.41176474e-001 2.94117648e-002 2.94117648e-002
      0. 0. 0. 0. 0. 0. 0. 0. 0. 0. 0. 0. 0. 0. 0. 0. 0. 4.11764711e-001
      5.00000000e-001 5.58823526e-001 2.64705896e-001 2.64705896e-001
      2.64705896e-001 3.82352948e-001 9.70588207e-001 9.70588207e-001
      9.70588207e-001 8.82352963e-002 0. 0. 0. 5.29411793e-001
      5.88235319e-001 6.47058845e-001 4.11764711e-001 2.64705896e-001
      2.64705896e-001 2.35294119e-001 2.64705896e-001 4.11764711e-001
      4.70588237e-001 4.11764711e-001 2.64705896e-001 0. 0. 0. 0. 0. 0.
      0. 0. 0. 0. 0. 0. 0. 0. 0. 0. 9.70588207e-001 1. 1.
      9.11764681e-001 3.23529422e-001 3.23529422e-001 3.23529422e-001
      3.52941185e-001 5.58823526e-001 1. 1. 9.70588207e-001 0. 0.
      3.52941185e-001 3.82352948e-001 5.58823526e-001 5.88235319e-001
      2.94117659e-001 2.94117659e-001 3.23529422e-001 6.76470578e-001
      6.47058845e-001 5.58823526e-001 4.70588237e-001 0. 0. 0. 0. 0. 0.
      2.94117648e-002 1.47058830e-001 8.52941155e-001 9.11764681e-001
      9.11764681e-001 8.23529422e-001 5.88235296e-002 0. 0. 0. 0.
      5.00000000e-001 5.88235319e-001 6.76470578e-001 6.76470578e-001
      2.05882356e-001 1.76470593e-001 1.76470593e-001 1.76470593e-001
      3.82352948e-001 6.76470578e-001 6.17647052e-001 5.58823526e-001 0.
      0. 0. 0. 0. 0. 0. 2.05882356e-001 2.35294119e-001 2.35294119e-001
      2.05882356e-001 0. 0. 0. 0. 1.02941178e-001 2.64705896e-001
      2.94117659e-001 3.23529422e-001 3.23529422e-001 3.52941185e-001
      3.38235289e-001 3.38235289e-001 3.23529422e-001 3.23529422e-001
      3.38235289e-001 7.05882370e-001 7.35294104e-001 7.94117630e-001
      8.08823526e-001 7.35294104e-001 6.17647052e-001 6.61764681e-001
      7.35294104e-001 7.64705896e-001 7.50000000e-001 7.35294104e-001
      6.32352948e-001 5.88235319e-001 5.73529422e-001 5.73529422e-001
      6.02941155e-001 6.32352948e-001 6.32352948e-001 6.61764681e-001
      6.76470578e-001 7.20588207e-001 8.08823526e-001 1.</_>
    <_>
      0. 0. 0. 0. 5.00000007e-002 2.00000003e-001 3.00000012e-001
      5.00000000e-001 7.50000000e-001 8.50000024e-001 9.49999988e-001
      9.49999988e-001 9.49999988e-001 8.50000024e-001 9.49999988e-001
      8.00000012e-001 1. 1. 7.50000000e-001 6.99999988e-001
      6.99999988e-001 7.50000000e-001 8.50000024e-001 8.50000024e-001 1.
      9.49999988e-001 8.50000024e-001 8.00000012e-001 6.49999976e-001
      5.00000000e-001 3.49999994e-001 2.50000000e-001 2.00000003e-001
      2.00000003e-001 2.50000000e-001 1.50000006e-001 1.50000006e-001
      3.49999994e-001 4.49999988e-001 5.00000000e-001 6.00000024e-001
      6.00000024e-001 4.00000006e-001 4.49999988e-001 5.00000000e-001
      6.00000024e-001 4.49999988e-001 4.00000006e-001 3.49999994e-001
      5.00000000e-001 6.00000024e-001 6.00000024e-001 5.00000000e-001
      4.00000006e-001 4.49999988e-001 4.00000006e-001 3.49999994e-001
      3.49999994e-001 3.49999994e-001 3.00000012e-001 2.00000003e-001
      2.50000000e-001 2.00000003e-001 1.50000006e-001 2.00000003e-001
      2.50000000e-001 2.00000003e-001 2.00000003e-001 2.50000000e-001
      3.49999994e-001 3.00000012e-001 3.00000012e-001 2.00000003e-001
      2.00000003e-001 2.50000000e-001 2.00000003e-001 2.50000000e-001
      2.00000003e-001 2.50000000e-001 3.49999994e-001 4.00000006e-001
      1.50000006e-001 1.50000006e-001 2.00000003e-001 2.50000000e-001
      1.50000006e-001 1.00000001e-001 2.00000003e-001 2.50000000e-001
      3.00000012e-001 2.50000000e-001 2.50000000e-001 4.49999988e-001
      2.50000000e-001 2.00000003e-001 1.00000001e-001 2.00000003e-001
      1.50000006e-001 5.00000007e-002 1.50000006e-001 2.00000003e-001
      4.49999988e-001 5.00000000e-001 4.49999988e-001 4.49999988e-001
      5.00000000e-001 5.50000012e-001 5.50000012e-001 6.00000024e-001
      6.49999976e-001 5.50000012e-001 5.50000012e-001 6.00000024e-001
      6.49999976e-001 5.50000012e-001 6.00000024e-001 6.00000024e-001
      6.00000024e-001 6.00000024e-001 6.00000024e-001 6.00000024e-001
      6.00000024e-001 5.50000012e-001 5.00000000e-001 4.49999988e-001
      5.50000012e-001 4.49999988e-001 4.49999988e-001 4.00000006e-001
      4.00000006e-001 5.50000012e-001 5.50000012e-001 4.49999988e-001
      4.49999988e-001 3.49999994e-001 3.49999994e-001 6.00000024e-001
      6.36363626e-001 6.72727287e-001 6.54545426e-001 6.18181825e-001
      6.18181825e-001 6.36363626e-001 6.54545426e-001 7.27272749e-001
      6.72727287e-001 5.81818163e-001 5.09090900e-001 8.18181813e-001 1.
      6.72727287e-001 6.54545426e-001 5.27272701e-001 4.36363637e-001
      5.63636363e-001 7.81818211e-001 7.09090889e-001 5.27272701e-001
      7.63636351e-001 7.09090889e-001 7.81818211e-001 6.90909088e-001
      6.36363626e-001 4.72727269e-001 6.36363626e-001 6.00000024e-001
      4.36363637e-001 4.00000006e-001 3.81818175e-001 2.90909082e-001
      2.72727281e-001 5.45454547e-002</_>
    <_>
      7.69230783e-001 6.15384638e-001 3.84615391e-001 2.30769232e-001
      2.30769232e-001 2.69230783e-001 1.92307696e-001 7.69230798e-002
      3.84615399e-002 0. 1.92307696e-001 2.30769232e-001 3.07692319e-001
      3.07692319e-001 3.07692319e-001 5.38461566e-001 4.23076928e-001
      4.61538464e-001 3.46153855e-001 4.61538464e-001 5.38461566e-001
      5.76923072e-001 3.84615391e-001 1.53846160e-001 1.15384616e-001
      7.69230798e-002 1.15384616e-001 1.15384616e-001 6.15384638e-001
      5.76923072e-001 4.61538464e-001 3.07692319e-001 1.53846160e-001
      1.92307696e-001 1.92307696e-001 2.30769232e-001 1.92307696e-001
      1.92307696e-001 1.53846160e-001 3.84615399e-002 2.69230783e-001
      3.07692319e-001 4.23076928e-001 3.84615391e-001 4.23076928e-001
      4.23076928e-001 3.84615391e-001 6.53846145e-001 7.69230783e-001
      9.61538434e-001 7.69230783e-001 1.92307696e-001 1.92307696e-001
      3.07692319e-001 2.69230783e-001 2.30769232e-001 2.69230783e-001
      5.38461566e-001 6.92307711e-001 8.84615362e-001 8.07692289e-001
      5.76923072e-001 5.00000000e-001 3.84615391e-001 2.69230783e-001
      3.84615399e-002 0. 7.69230798e-002 4.61538464e-001 6.15384638e-001
      6.15384638e-001 7.30769217e-001 5.38461566e-001 5.00000000e-001
      5.00000000e-001 5.38461566e-001 4.61538464e-001 4.23076928e-001
      5.00000000e-001 4.61538464e-001 2.30769232e-001 3.84615391e-001
      5.76923072e-001 6.53846145e-001 6.53846145e-001 6.53846145e-001
      6.15384638e-001 6.15384638e-001 6.15384638e-001 5.00000000e-001
      5.76923072e-001 3.07692319e-001 1.53846160e-001 0. 3.84615399e-002
      1.53846160e-001 2.69230783e-001 1.15384616e-001 0. 1.15384616e-001
      3.07692319e-001 6.53846145e-001 8.46153855e-001 1. 1.
      6.92307711e-001 6.53846145e-001 1.15384616e-001 1.53846160e-001
      1.53846160e-001 5.00000000e-001 5.76923072e-001 6.15384638e-001
      4.23076928e-001 1.53846160e-001 3.46153855e-001 4.23076928e-001
      7.69230783e-001 8.07692289e-001 6.53846145e-001 6.15384638e-001
      6.92307711e-001 7.30769217e-001 5.76923072e-001 3.84615391e-001
      6.15384638e-001 6.92307711e-001 5.76923072e-001 5.38461566e-001
      6.15384638e-001 5.00000000e-001 4.61538464e-001 3.07692319e-001
      3.46153855e-001 3.84615391e-001 4.23076928e-001 9.82456148e-001
      8.94736826e-001 6.66666687e-001 5.43859661e-001 3.85964900e-001
      2.98245609e-001 3.50877196e-001 4.56140339e-001 6.14035070e-001
      8.42105269e-001 9.29824591e-001 9.12280679e-001 8.24561417e-001
      7.71929801e-001 7.89473712e-001 8.24561417e-001 7.71929801e-001
      6.84210539e-001 6.84210539e-001 6.84210539e-001 7.54385948e-001
      7.54385948e-001 6.66666687e-001 6.31578922e-001 6.14035070e-001
      5.26315808e-001 5.96491218e-001 6.84210539e-001 8.24561417e-001
      8.07017565e-001 1. 8.42105269e-001 7.36842096e-001 8.42105269e-001
      8.24561417e-001 8.24561417e-001</_>
    <_>
      8.88888896e-001 8.05555582e-001 8.05555582e-001 7.77777791e-001
      7.77777791e-001 7.50000000e-001 7.22222209e-001 8.33333358e-002
      2.77777780e-002 2.77777780e-002 2.77777780e-002 5.55555560e-002
      5.55555560e-002 7.50000000e-001 7.77777791e-001 7.77777791e-001
      7.77777791e-001 7.77777791e-001 7.77777791e-001 8.61111104e-001
      9.44444418e-001 5.55555582e-001 4.44444448e-001 3.33333343e-001
      2.50000000e-001 1.94444448e-001 1.38888896e-001 2.77777791e-001
      3.88888896e-001 4.44444448e-001 5.00000000e-001 5.00000000e-001
      5.83333313e-001 5.83333313e-001 5.27777791e-001 5.00000000e-001
      4.44444448e-001 3.61111104e-001 1.11111112e-001 1.38888896e-001
      1.94444448e-001 3.05555552e-001 3.88888896e-001 5.27777791e-001
      7.22222209e-001 1. 1. 1. 1. 1. 1. 1. 1. 1. 1. 1. 1. 1. 1. 1. 1. 1.
      1. 1. 1. 9.44444418e-001 6.66666687e-001 5.27777791e-001
      4.44444448e-001 3.05555552e-001 2.22222224e-001 1.66666672e-001
      1.11111112e-001 3.33333343e-001 4.16666657e-001 4.72222209e-001
      4.72222209e-001 5.27777791e-001 5.27777791e-001 5.27777791e-001
      5.55555582e-001 5.27777791e-001 4.44444448e-001 3.33333343e-001
      1.11111112e-001 1.66666672e-001 1.94444448e-001 2.77777791e-001
      3.61111104e-001 5.00000000e-001 6.66666687e-001 1. 1.
      8.61111104e-001 8.33333313e-001 8.05555582e-001 8.05555582e-001
      8.05555582e-001 7.77777791e-001 7.77777791e-001 1.66666672e-001
      5.55555560e-002 5.55555560e-002 2.77777780e-002 2.77777780e-002
      5.55555560e-002 2.22222224e-001 7.22222209e-001 7.50000000e-001
      7.77777791e-001 6.94444418e-001 5.83333313e-001 5.00000000e-001
      5.55555582e-001 4.16666657e-001 3.05555552e-001 2.22222224e-001
      2.50000000e-001 2.77777791e-001 3.05555552e-001 3.05555552e-001
      3.33333343e-001 3.33333343e-001 3.33333343e-001 3.61111104e-001
      3.61111104e-001 3.61111104e-001 3.05555552e-001 3.61111104e-001
      4.44444448e-001 6.11111104e-001 7.22222209e-001 7.77777791e-001
      9.16666687e-001 1. 1. 9.51612890e-001 7.33870983e-001
      5.72580636e-001 5.40322602e-001 4.59677428e-001 4.35483873e-001
      4.03225809e-001 3.95161301e-001 4.59677428e-001 5.88709652e-001
      6.12903237e-001 6.29032254e-001 6.29032254e-001 6.45161271e-001
      6.45161271e-001 6.29032254e-001 6.37096763e-001 6.45161271e-001
      6.53225780e-001 6.53225780e-001 6.29032254e-001 6.29032254e-001
      6.29032254e-001 6.20967746e-001 5.96774220e-001 5.56451619e-001
      5.16129017e-001 4.83870953e-001 5.24193525e-001 5.48387110e-001
      5.88709652e-001 6.04838729e-001 6.29032254e-001 6.93548381e-001
      7.90322602e-001 1.</_>
    <_>
      0. 0. 0. 0. 0. 0. 0. 0. 0. 0. 0. 0. 0. 0. 0. 0. 0. 0. 0.
      2.72727281e-001 1.81818187e-001 1.81818187e-001 9.09090936e-002 0.
      9.09090936e-002 9.09090936e-002 2.72727281e-001 3.63636374e-001
      4.54545468e-001 4.54545468e-001 6.36363626e-001 7.27272749e-001
      5.45454562e-001 7.27272749e-001 5.45454562e-001 7.27272749e-001
      7.27272749e-001 6.36363626e-001 8.18181813e-001 7.27272749e-001
      8.18181813e-001 6.36363626e-001 7.27272749e-001 5.45454562e-001
      3.63636374e-001 2.72727281e-001 3.63636374e-001 2.72727281e-001
      3.63636374e-001 3.63636374e-001 2.72727281e-001 3.63636374e-001
      4.54545468e-001 4.54545468e-001 6.36363626e-001 5.45454562e-001
      6.36363626e-001 6.36363626e-001 6.36363626e-001 5.45454562e-001
      2.72727281e-001 2.72727281e-001 2.72727281e-001 3.63636374e-001
      3.63636374e-001 3.63636374e-001 2.72727281e-001 2.72727281e-001
      4.54545468e-001 6.36363626e-001 7.27272749e-001 7.27272749e-001
      7.27272749e-001 8.18181813e-001 1. 1. 9.09090936e-001
      9.09090936e-001 9.09090936e-001 1. 1. 1. 1. 9.09090936e-001
      9.09090936e-001 7.27272749e-001 7.27272749e-001 4.54545468e-001
      5.45454562e-001 6.36363626e-001 8.18181813e-001 7.27272749e-001
      6.36363626e-001 4.54545468e-001 2.72727281e-001 2.72727281e-001
      2.72727281e-001 2.72727281e-001 3.63636374e-001 2.72727281e-001
      2.72727281e-001 3.63636374e-001 2.72727281e-001 2.72727281e-001
      2.72727281e-001 3.63636374e-001 3.63636374e-001 3.63636374e-001
      4.54545468e-001 3.63636374e-001 2.72727281e-001 2.72727281e-001
      3.63636374e-001 4.54545468e-001 3.63636374e-001 3.63636374e-001
      2.72727281e-001 2.72727281e-001 2.72727281e-001 2.72727281e-001
      2.72727281e-001 2.72727281e-001 1.81818187e-001 2.72727281e-001
      2.72727281e-001 2.72727281e-001 2.72727281e-001 2.72727281e-001
      2.72727281e-001 2.72727281e-001 2.72727281e-001 3.63636374e-001
      2.72727281e-001 2.72727281e-001 0. 0. 0. 8.57142881e-002
      1.14285715e-001 2.00000003e-001 2.00000003e-001 2.00000003e-001
      3.71428579e-001 7.14285731e-001 8.85714293e-001 9.71428573e-001 1.
      8.57142866e-001 8.57142866e-001 7.42857158e-001 5.71428597e-001
      4.57142860e-001 4.28571433e-001 4.00000006e-001 4.00000006e-001
      3.71428579e-001 5.71428597e-001 5.42857170e-001 4.85714287e-001
      4.85714287e-001 5.14285743e-001 3.14285725e-001 3.14285725e-001
      3.71428579e-001 4.00000006e-001 4.85714287e-001 6.00000024e-001
      6.85714304e-001 5.71428597e-001 5.14285743e-001 3.14285725e-001 0.</_>
    <_>
      0. 0. 0. 0. 0. 0. 0. 0. 0. 0. 0. 0. 0. 0. 0. 0. 0. 0. 0. 0.
      3.52941185e-001 7.05882370e-001 8.82352948e-001 1. 8.23529422e-001
      5.88235319e-001 2.35294119e-001 5.29411793e-001 7.05882370e-001
      6.47058845e-001 4.11764711e-001 5.88235296e-002 0. 0. 0. 0. 0.
      2.35294119e-001 2.94117659e-001 2.94117659e-001 2.35294119e-001
      1.76470593e-001 1.76470593e-001 2.35294119e-001 4.70588237e-001
      4.70588237e-001 6.47058845e-001 7.64705896e-001 5.88235319e-001
      2.94117659e-001 2.35294119e-001 2.35294119e-001 2.35294119e-001
      1.17647059e-001 0. 0. 0. 5.88235296e-002 1.17647059e-001 0. 0.
      2.94117659e-001 4.11764711e-001 4.11764711e-001 4.70588237e-001
      4.11764711e-001 3.52941185e-001 0. 0. 0. 0. 1.76470593e-001
      1.76470593e-001 5.88235296e-002 1.17647059e-001 5.88235296e-002
      1.17647059e-001 1.17647059e-001 5.88235296e-002 1.17647059e-001
      1.17647059e-001 2.35294119e-001 5.29411793e-001 7.05882370e-001
      6.47058845e-001 5.88235319e-001 2.35294119e-001 2.35294119e-001
      1.76470593e-001 2.35294119e-001 2.35294119e-001 2.35294119e-001
      2.94117659e-001 3.52941185e-001 3.52941185e-001 5.29411793e-001
      4.70588237e-001 3.52941185e-001 3.52941185e-001 3.52941185e-001
      2.94117659e-001 2.35294119e-001 2.35294119e-001 2.94117659e-001
      2.94117659e-001 2.94117659e-001 2.94117659e-001 1.76470593e-001
      1.17647059e-001 2.35294119e-001 2.94117659e-001 2.94117659e-001
      3.52941185e-001 4.70588237e-001 4.11764711e-001 2.94117659e-001
      1.17647059e-001 1.17647059e-001 5.88235296e-002 1.17647059e-001
      1.17647059e-001 5.88235296e-002 1.17647059e-001 5.88235296e-002
      5.88235296e-002 5.88235296e-002 5.88235296e-002 0. 0.
      5.88235296e-002 1.17647059e-001 5.88235296e-002 1.17647059e-001 0.
      0. 0. 1.47058830e-001 1.17647059e-001 8.82352963e-002 0.
      1.17647059e-001 3.82352948e-001 4.41176474e-001 4.11764711e-001
      5.29411793e-001 5.88235319e-001 7.64705896e-001 8.82352948e-001 1.
      8.82352948e-001 9.41176474e-001 5.88235319e-001 5.88235319e-001
      5.29411793e-001 5.88235319e-001 5.00000000e-001 4.70588237e-001
      4.41176474e-001 3.82352948e-001 5.00000000e-001 4.70588237e-001
      3.23529422e-001 2.64705896e-001 1.76470593e-001 1.76470593e-001
      1.76470593e-001 2.05882356e-001 3.52941185e-001 3.52941185e-001
      1.76470593e-001 8.82352963e-002 0.</_>
    <_>
      1.76470593e-001 1.76470593e-001 2.05882356e-001 3.52941185e-001
      3.52941185e-001 4.70588237e-001 1. 1. 9.70588207e-001
      9.70588207e-001 9.70588207e-001 0. 0. 0. 0. 0. 0. 0. 0. 0. 0. 0.
      0. 0. 0. 0. 0. 0. 0. 0. 0. 0. 0. 0. 0. 0. 0. 0. 0. 0. 0. 0. 0. 0.
      0. 1.47058830e-001 1.76470593e-001 2.35294119e-001 3.82352948e-001
      3.82352948e-001 3.82352948e-001 5.88235319e-001 4.70588237e-001
      6.47058845e-001 1. 1. 1. 1. 1. 7.94117630e-001 0. 0. 0. 0. 0.
      1.17647059e-001 1.76470593e-001 2.64705896e-001 3.82352948e-001
      4.11764711e-001 4.11764711e-001 2.35294119e-001 2.35294119e-001
      2.35294119e-001 2.05882356e-001 2.05882356e-001 2.05882356e-001
      2.35294119e-001 2.64705896e-001 3.82352948e-001 3.82352948e-001
      3.82352948e-001 2.05882356e-001 1.76470593e-001 1.47058830e-001 0.
      0. 0. 0. 0. 0. 0. 0. 0. 0. 0. 0. 0. 0. 0. 0. 0. 0. 0. 0. 0. 0. 0.
      0. 0. 9.41176474e-001 9.70588207e-001 9.70588207e-001
      9.41176474e-001 9.41176474e-001 9.41176474e-001 7.05882370e-001
      5.88235319e-001 5.88235319e-001 5.88235319e-001 5.88235319e-001
      5.88235319e-001 6.17647052e-001 5.88235319e-001 7.05882370e-001
      9.70588207e-001 9.70588207e-001 9.70588207e-001 9.70588207e-001
      9.70588207e-001 0. 0. 0. 0. 0. 0. 0. 0. 1.85185179e-001
      3.88888896e-001 4.62962955e-001 4.62962955e-001 4.62962955e-001
      4.62962955e-001 5.00000000e-001 4.62962955e-001 5.37037015e-001
      5.55555582e-001 5.55555582e-001 5.92592597e-001 6.11111104e-001
      6.11111104e-001 7.03703701e-001 6.85185194e-001 6.85185194e-001
      6.85185194e-001 6.85185194e-001 6.85185194e-001 7.22222209e-001
      9.62962985e-001 9.62962985e-001 9.62962985e-001 9.44444418e-001
      9.44444418e-001 9.44444418e-001 1. 7.96296299e-001 8.14814806e-001
      8.14814806e-001 8.51851881e-001 8.70370388e-001 8.70370388e-001</_>
    <_>
      8.05555582e-001 9.44444418e-001 1. 1. 1. 3.88888896e-001
      3.33333343e-001 3.05555552e-001 2.77777791e-001 2.50000000e-001
      2.50000000e-001 2.50000000e-001 2.50000000e-001 2.50000000e-001
      2.50000000e-001 2.77777791e-001 3.88888896e-001 4.72222209e-001
      4.72222209e-001 5.00000000e-001 1. 1. 1. 1. 4.72222209e-001
      3.05555552e-001 2.77777791e-001 2.77777791e-001 2.77777791e-001
      2.77777791e-001 2.77777791e-001 2.77777791e-001 2.77777791e-001
      2.77777791e-001 2.77777791e-001 2.77777791e-001 3.05555552e-001
      3.33333343e-001 3.61111104e-001 1. 1. 1. 1. 9.72222209e-001
      2.77777791e-001 2.77777791e-001 2.77777791e-001 3.05555552e-001
      3.05555552e-001 3.05555552e-001 3.05555552e-001 3.33333343e-001
      3.33333343e-001 3.33333343e-001 3.33333343e-001 3.33333343e-001
      3.61111104e-001 3.61111104e-001 3.61111104e-001 3.61111104e-001
      3.61111104e-001 3.61111104e-001 3.61111104e-001 3.61111104e-001
      3.61111104e-001 3.61111104e-001 3.61111104e-001 3.61111104e-001
      3.61111104e-001 3.61111104e-001 3.88888896e-001 3.88888896e-001
      3.88888896e-001 3.88888896e-001 3.88888896e-001 3.88888896e-001
      3.88888896e-001 3.88888896e-001 4.16666657e-001 4.16666657e-001
      3.88888896e-001 3.88888896e-001 3.88888896e-001 2.50000000e-001
      6.94444418e-001 1. 1. 1. 1. 7.22222209e-001 3.88888896e-001
      3.88888896e-001 6.11111104e-001 6.66666687e-001 6.94444418e-001
      6.38888896e-001 4.72222209e-001 3.88888896e-001 0. 0. 0.
      3.33333343e-001 4.44444448e-001 4.44444448e-001 4.16666657e-001
      3.88888896e-001 9.44444418e-001 9.44444418e-001 9.44444418e-001
      9.72222209e-001 9.44444418e-001 4.44444448e-001 4.44444448e-001
      4.44444448e-001 3.88888896e-001 1.38888896e-001 1.11111112e-001
      4.72222209e-001 5.55555582e-001 5.00000000e-001 4.72222209e-001
      5.55555582e-001 5.00000000e-001 5.00000000e-001 5.00000000e-001
      5.00000000e-001 4.72222209e-001 6.66666687e-001 6.11111104e-001
      5.83333313e-001 5.00000000e-001 5.00000000e-001 3.05555552e-001 0.
      0. 0. 6.95312500e-001 7.26562500e-001 9.06250000e-001
      9.68750000e-001 9.68750000e-001 9.84375000e-001 9.92187500e-001 1.
      9.92187500e-001 8.67187500e-001 7.42187500e-001 7.10937500e-001
      6.56250000e-001 5.46875000e-001 4.37500000e-001 3.98437500e-001
      3.90625000e-001 3.51562500e-001 2.96875000e-001 3.04687500e-001
      3.04687500e-001 3.04687500e-001 3.04687500e-001 2.89062500e-001
      2.89062500e-001 2.73437500e-001 2.26562500e-001 2.18750000e-001
      2.18750000e-001 2.18750000e-001 2.34375000e-001 2.34375000e-001
      2.34375000e-001 2.18750000e-001 2.34375000e-001 2.42187500e-001</_>
    <_>
      2.77777780e-002 1.38888896e-001 1.94444448e-001 2.77777791e-001 1.
      1. 1. 1. 1. 1. 1. 3.88888896e-001 3.05555552e-001 3.05555552e-001
      2.50000000e-001 2.22222224e-001 2.50000000e-001 4.72222209e-001
      5.00000000e-001 5.00000000e-001 4.72222209e-001 4.16666657e-001
      3.61111104e-001 3.05555552e-001 2.22222224e-001 0. 0. 0.
      4.72222209e-001 5.00000000e-001 5.27777791e-001 6.38888896e-001
      6.66666687e-001 6.66666687e-001 6.66666687e-001 1.94444448e-001
      1.66666672e-001 1.66666672e-001 1.66666672e-001 1.66666672e-001
      1.66666672e-001 1.66666672e-001 1.66666672e-001 1.66666672e-001
      1.66666672e-001 6.66666687e-001 6.66666687e-001 6.38888896e-001
      6.11111104e-001 5.55555582e-001 5.00000000e-001 1.66666672e-001 0.
      0. 0. 5.55555560e-002 8.33333358e-002 1.11111112e-001
      6.66666687e-001 6.66666687e-001 6.94444418e-001 6.66666687e-001
      6.11111104e-001 5.83333313e-001 5.55555582e-001 1.38888896e-001
      1.11111112e-001 1.38888896e-001 1.38888896e-001 1.38888896e-001
      1.38888896e-001 1.38888896e-001 6.66666687e-001 6.66666687e-001
      6.38888896e-001 6.11111104e-001 5.83333313e-001 5.55555582e-001
      5.00000000e-001 0. 0. 0. 2.77777780e-002 8.33333358e-002
      8.33333358e-002 8.33333358e-002 1.11111112e-001 1.11111112e-001
      5.55555582e-001 7.77777791e-001 8.33333313e-001 8.88888896e-001
      9.44444418e-001 9.44444418e-001 9.44444418e-001 9.16666687e-001
      2.77777791e-001 2.22222224e-001 2.22222224e-001 2.22222224e-001
      2.50000000e-001 2.50000000e-001 1.94444448e-001 1.38888896e-001
      2.77777780e-002 0. 0. 0. 0. 5.00000000e-001 5.27777791e-001
      6.11111104e-001 6.11111104e-001 6.38888896e-001 6.66666687e-001
      6.66666687e-001 4.72222209e-001 3.61111104e-001 3.05555552e-001
      2.77777791e-001 2.77777791e-001 2.77777791e-001 2.77777791e-001
      2.77777791e-001 2.77777791e-001 2.77777791e-001 3.05555552e-001
      4.16666657e-001 4.72222209e-001 4.44444448e-001 3.88888896e-001
      3.33333343e-001 1.94444448e-001 8.33333358e-002 0. 0.
      1.63265303e-001 1.93877548e-001 2.55102038e-001 2.75510192e-001
      2.55102038e-001 2.14285716e-001 2.04081640e-001 2.14285716e-001
      2.24489793e-001 2.24489793e-001 2.24489793e-001 2.55102038e-001
      8.16326559e-001 8.87755096e-001 9.48979616e-001 1. 7.24489808e-001
      6.73469365e-001 7.04081655e-001 6.73469365e-001 6.83673441e-001
      6.83673441e-001 6.93877578e-001 5.20408154e-001 5.10204077e-001
      5.10204077e-001 5.00000000e-001 5.10204077e-001 5.10204077e-001
      5.10204077e-001 5.40816307e-001 5.81632674e-001 6.73469365e-001
      6.63265288e-001 7.95918345e-001 7.75510192e-001</_>
    <_>
      0. 0. 3.12500000e-001 5.62500000e-001 5.62500000e-001
      4.37500000e-001 5.00000000e-001 5.00000000e-001 3.75000000e-001
      4.37500000e-001 5.62500000e-001 6.87500000e-001 5.62500000e-001
      5.62500000e-001 3.75000000e-001 4.37500000e-001 5.00000000e-001
      5.00000000e-001 5.00000000e-001 5.62500000e-001 5.62500000e-001
      5.62500000e-001 5.62500000e-001 5.62500000e-001 5.00000000e-001
      5.00000000e-001 4.37500000e-001 3.75000000e-001 3.75000000e-001
      3.12500000e-001 2.50000000e-001 1.87500000e-001 3.12500000e-001
      3.75000000e-001 3.12500000e-001 1.87500000e-001 0. 6.25000000e-002
      6.25000000e-002 0. 0. 0. 0. 0. 0. 0. 1.25000000e-001
      2.50000000e-001 2.50000000e-001 3.12500000e-001 3.12500000e-001
      5.62500000e-001 7.50000000e-001 1. 9.37500000e-001 9.37500000e-001
      1. 1. 8.12500000e-001 5.00000000e-001 3.12500000e-001
      1.25000000e-001 1.87500000e-001 6.25000000e-002 0. 0. 0.
      6.25000000e-002 1.25000000e-001 1.87500000e-001 1.25000000e-001
      1.25000000e-001 6.25000000e-002 1.25000000e-001 6.25000000e-002
      6.25000000e-002 1.87500000e-001 2.50000000e-001 5.00000000e-001
      5.62500000e-001 6.25000000e-001 5.62500000e-001 3.12500000e-001
      3.12500000e-001 2.50000000e-001 2.50000000e-001 3.75000000e-001
      4.37500000e-001 5.62500000e-001 6.25000000e-001 6.25000000e-001
      6.25000000e-001 6.25000000e-001 6.25000000e-001 6.87500000e-001
      6.87500000e-001 5.62500000e-001 4.37500000e-001 4.37500000e-001
      4.37500000e-001 4.37500000e-001 4.37500000e-001 4.37500000e-001
      2.50000000e-001 3.75000000e-001 3.75000000e-001 5.00000000e-001
      4.37500000e-001 5.00000000e-001 5.62500000e-001 5.62500000e-001
      5.00000000e-001 5.00000000e-001 5.00000000e-001 5.62500000e-001
      5.62500000e-001 5.00000000e-001 4.37500000e-001 5.00000000e-001
      5.00000000e-001 3.75000000e-001 4.37500000e-001 5.00000000e-001
      3.75000000e-001 3.75000000e-001 3.75000000e-001 3.75000000e-001
      3.75000000e-001 3.75000000e-001 3.75000000e-001 2.50000000e-001
      3.12500000e-001 2.50000000e-001 2.50000000e-001 1.87500000e-001
      1.87500000e-001 6.17021263e-001 8.08510661e-001 7.65957475e-001
      9.36170220e-001 1. 7.65957475e-001 4.89361703e-001 5.95744669e-001
      6.59574449e-001 7.02127635e-001 5.10638297e-001 2.55319148e-001
      2.34042555e-001 2.34042555e-001 3.40425521e-001 4.25531924e-001
      4.04255331e-001 3.19148928e-001 2.55319148e-001 2.55319148e-001
      1.91489369e-001 1.91489369e-001 1.91489369e-001 1.48936167e-001
      2.76595742e-001 4.46808517e-001 5.31914890e-001 4.89361703e-001
      7.44680822e-001 4.04255331e-001 4.89361703e-001 7.23404229e-001
      8.72340441e-001 8.72340441e-001 5.95744669e-001 2.12765951e-002</_>
    <_>
      9.68750000e-001 9.68750000e-001 9.68750000e-001 9.68750000e-001
      9.68750000e-001 9.68750000e-001 9.68750000e-001 9.68750000e-001
      9.68750000e-001 9.37500000e-001 9.37500000e-002 9.37500000e-002
      9.37500000e-002 9.37500000e-002 9.37500000e-002 9.37500000e-002
      9.37500000e-002 9.37500000e-002 9.37500000e-002 9.37500000e-002
      9.37500000e-002 9.37500000e-002 9.37500000e-002 9.37500000e-002
      9.37500000e-001 9.68750000e-001 9.68750000e-001 9.68750000e-001
      9.68750000e-001 9.68750000e-001 9.68750000e-001 9.68750000e-001
      9.68750000e-001 9.68750000e-001 0. 0. 0. 0. 0. 4.68750000e-001
      5.00000000e-001 5.00000000e-001 5.00000000e-001 5.93750000e-001
      6.87500000e-001 6.87500000e-001 6.87500000e-001 6.87500000e-001
      6.87500000e-001 2.18750000e-001 1.87500000e-001 1.87500000e-001
      1.87500000e-001 1.87500000e-001 1.87500000e-001 1.87500000e-001
      1.87500000e-001 1.87500000e-001 1.87500000e-001 1.87500000e-001
      1.87500000e-001 1.87500000e-001 2.18750000e-001 6.87500000e-001
      6.87500000e-001 6.87500000e-001 6.87500000e-001 6.87500000e-001
      5.00000000e-001 5.00000000e-001 5.00000000e-001 5.00000000e-001
      4.68750000e-001 0. 0. 0. 0. 0. 9.37500000e-002 9.37500000e-002
      9.37500000e-002 9.37500000e-002 9.37500000e-002 9.37500000e-002
      9.37500000e-002 9.37500000e-002 9.37500000e-002 7.50000000e-001
      7.81250000e-001 7.81250000e-001 7.81250000e-001 8.12500000e-001
      9.37500000e-001 1. 1. 1. 9.68750000e-001 2.81250000e-001
      1.87500000e-001 1.87500000e-001 1.87500000e-001 2.18750000e-001
      2.81250000e-001 2.81250000e-001 2.81250000e-001 2.81250000e-001
      3.12500000e-001 1.25000000e-001 1.25000000e-001 1.25000000e-001
      1.25000000e-001 6.25000000e-002 0. 0. 0. 0. 3.43750000e-001
      5.00000000e-001 5.00000000e-001 5.00000000e-001 5.00000000e-001
      6.56250000e-001 6.87500000e-001 6.87500000e-001 6.87500000e-001
      6.87500000e-001 5.31250000e-001 2.81250000e-001 2.81250000e-001
      2.81250000e-001 2.81250000e-001 2.81250000e-001 2.81250000e-001
      2.81250000e-001 2.81250000e-001 2.81250000e-001 0. 3.37078646e-002
      2.80898869e-001 2.80898869e-001 2.92134821e-001 3.37078661e-001
      3.37078661e-001 3.37078661e-001 3.37078661e-001 3.37078661e-001
      3.48314613e-001 9.88764048e-001 9.88764048e-001 1. 8.42696607e-001
      8.42696607e-001 8.31460655e-001 7.75280893e-001 7.86516845e-001
      7.86516845e-001 6.85393274e-001 6.85393274e-001 6.85393274e-001
      6.85393274e-001 6.74157321e-001 6.74157321e-001 7.30337083e-001
      7.86516845e-001 7.75280893e-001 7.86516845e-001 8.42696607e-001
      8.42696607e-001 7.86516845e-001 0. 0. 0.</_>
    <_>
      0. 0. 0. 0. 0. 0. 0. 0. 0. 0. 3.00000012e-001 4.00000006e-001
      5.33333361e-001 6.00000024e-001 6.66666687e-001 3.00000012e-001
      2.66666681e-001 3.00000012e-001 9.33333337e-001 8.99999976e-001
      9.33333337e-001 1. 9.66666639e-001 1.00000001e-001 3.33333351e-002
      0. 0. 5.00000000e-001 6.00000024e-001 6.99999988e-001
      6.99999988e-001 3.66666675e-001 3.33333343e-001 3.00000012e-001
      3.66666675e-001 4.00000006e-001 5.00000000e-001 5.33333361e-001
      4.66666669e-001 3.66666675e-001 1.66666672e-001 0. 0. 0. 0. 0. 0.
      0. 0. 0. 0. 0. 0. 0. 0. 0. 0. 0. 0. 1. 1. 1. 1. 3.00000012e-001
      3.33333343e-001 3.33333343e-001 3.66666675e-001 3.00000012e-001
      3.66666675e-001 1. 1. 1. 1. 0. 0. 3.00000012e-001 3.33333343e-001
      6.00000024e-001 6.66666687e-001 4.33333337e-001 4.00000006e-001
      4.00000006e-001 4.00000006e-001 6.33333325e-001 6.00000024e-001
      6.33333325e-001 6.00000024e-001 1.66666672e-001 1.00000001e-001 0.
      0. 0. 0. 0. 0. 2.00000003e-001 2.66666681e-001 8.99999976e-001
      9.33333337e-001 9.33333337e-001 8.99999976e-001 2.33333334e-001
      1.00000001e-001 0. 0. 0. 0. 4.66666669e-001 5.33333361e-001
      6.66666687e-001 7.33333349e-001 3.00000012e-001 2.66666681e-001
      2.66666681e-001 2.66666681e-001 2.66666681e-001 2.66666681e-001
      7.33333349e-001 6.99999988e-001 6.00000024e-001 5.00000000e-001
      1.00000001e-001 0. 0. 0. 0. 0. 3.33333351e-002 1.00000001e-001
      3.66666675e-001 4.00000006e-001 3.66666675e-001 3.00000012e-001
      2.00000003e-001 0. 0. 0. 3.17460336e-002 6.34920672e-002
      1.90476194e-001 2.85714298e-001 3.17460328e-001 3.49206358e-001
      3.49206358e-001 3.01587313e-001 3.01587313e-001 4.44444448e-001
      6.50793672e-001 7.61904776e-001 9.36507940e-001 8.88888896e-001
      7.61904776e-001 6.82539701e-001 7.77777791e-001 8.09523821e-001
      8.41269851e-001 8.73015881e-001 8.09523821e-001 7.30158746e-001
      7.46031761e-001 7.61904776e-001 7.61904776e-001 7.61904776e-001
      8.09523821e-001 9.20634925e-001 1. 9.52380955e-001 9.52380955e-001
      6.66666687e-001 3.17460328e-001 0. 0.</_>
    <_>
      3.68421048e-001 3.15789461e-001 4.21052635e-001 4.21052635e-001
      4.21052635e-001 3.15789461e-001 3.68421048e-001 4.21052635e-001
      4.21052635e-001 5.26315808e-001 5.78947365e-001 4.73684222e-001
      4.21052635e-001 4.73684222e-001 4.21052635e-001 5.26315808e-001
      4.21052635e-001 4.73684222e-001 4.73684222e-001 5.26315808e-001
      5.26315808e-001 3.15789461e-001 4.73684222e-001 5.26315808e-001
      4.73684222e-001 5.26315808e-001 5.78947365e-001 5.78947365e-001
      5.78947365e-001 5.26315808e-001 5.26315808e-001 6.31578922e-001
      7.89473712e-001 7.36842096e-001 7.89473712e-001 6.31578922e-001
      6.31578922e-001 4.73684222e-001 4.73684222e-001 4.73684222e-001
      4.73684222e-001 7.36842096e-001 9.47368443e-001 1. 8.42105269e-001
      9.47368443e-001 8.42105269e-001 6.31578922e-001 4.21052635e-001
      3.68421048e-001 4.73684222e-001 3.68421048e-001 3.68421048e-001
      3.68421048e-001 4.21052635e-001 6.84210539e-001 6.31578922e-001
      5.26315808e-001 3.15789461e-001 3.68421048e-001 4.21052635e-001
      7.89473712e-001 3.15789461e-001 4.73684222e-001 6.84210539e-001
      6.84210539e-001 7.89473712e-001 6.84210539e-001 6.84210539e-001
      7.36842096e-001 5.78947365e-001 6.84210539e-001 5.78947365e-001
      4.21052635e-001 4.21052635e-001 3.68421048e-001 2.10526317e-001
      1.05263159e-001 1.57894731e-001 1.05263159e-001 5.26315793e-002 0.
      0. 0. 0. 0. 0. 1.57894731e-001 2.63157904e-001 3.15789461e-001
      5.26315808e-001 4.73684222e-001 4.73684222e-001 4.73684222e-001
